{"learner":{"attributes":{"best_iteration":"17","best_score":"0.6927645048195461"},"feature_names":[],"feature_types":[],"gradient_booster":{"model":{"cats":{"enc":[],"feature_segments":[],"sorted_idx":[]},"gbtree_model_param":{"num_parallel_tree":"1","num_trees":"68"},"iteration_indptr":[0,1,2,3,4,5,6,7,8,9,10,11,12,13,14,15,16,17,18,19,20,21,22,23,24,25,26,27,28,29,30,31,32,33,34,35,36,37,38,39,40,41,42,43,44,45,46,47,48,49,50,51,52,53,54,55,56,57,58,59,60,61,62,63,64,65,66,67,68],"tree_info":[0,0,0,0,0,0,0,0,0,0,0,0,0,0,0,0,0,0,0,0,0,0,0,0,0,0,0,0,0,0,0,0,0,0,0,0,0,0,0,0,0,0,0,0,0,0,0,0,0,0,0,0,0,0,0,0,0,0,0,0,0,0,0,0,0,0,0,0],"trees":[{"base_weights":[-1.2010381E-2,-6.801768E-2,2.2680116E-1,-3.9997336E-2,-2.4366972E-1,4.3312857E-1,1.3392693E-1,-2.3884225E-1,-6.983446E-3,-2.7006367E-1,7.5188917E-1,5.2832603E-1,-2.637163E-1,6.736737E-2,5.270794E-1,-6.0435586E-2,-5.0534266E-1,1.6395761E-1,-4.5183163E-2,-2.406304E-1,-9.210631E-1,-9.335158E-1,1.2299445E0,5.965265E-1,-3.0795598E-2,-1.0404005E0,3.388488E-3,1.13723814E-1,-6.2058675E-1,-9.532174E-1,6.0885745E-1,5.94575E-4,-1.5354103E-2,-5.0272224E-3,-1.5548267E-2,8.007479E-3,-1.2318459E-3,1.4176428E-3,-1.9716609E-3,1.7263134E-3,-5.731998E-3,-4.7881776E-4,-2.8332664E-2,7.402902E-3,-3.272727E-2,2.8046967E-2,-1.0433035E-2,1.0262263E-2,2.000429E-2,-2.660165E-2,3.2996163E-3,2.9635548E-3,-2.7988378E-2,-3.599014E-3,2.0122247E-2,3.1881751E-3,-6.911868E-3,-1.6897852E-2,1.4543138E-2,7.402902E-3,-2.7306175E-2,2.3354601E-2,7.7701625E-3],"categories":[],"categories_nodes":[],"categories_segments":[],"categories_sizes":[],"default_left":[0,0,0,0,0,0,0,0,0,0,0,0,0,0,0,0,0,0,0,0,0,0,0,0,0,0,0,0,0,0,0,0,0,0,0,0,0,0,0,0,0,0,0,0,0,0,0,0,0,0,0,0,0,0,0,0,0,0,0,0,0,0,0],"id":0,"left_children":[1,3,5,7,9,11,13,15,17,19,21,23,25,27,29,31,33,35,37,39,41,43,45,47,49,51,53,55,57,59,61,-1,-1,-1,-1,-1,-1,-1,-1,-1,-1,-1,-1,-1,-1,-1,-1,-1,-1,-1,-1,-1,-1,-1,-1,-1,-1,-1,-1,-1,-1,-1,-1],"loss_changes":[1.5890147E2,4.735413E1,4.319056E1,5.4488163E1,3.498622E1,4.6583862E1,4.0729523E1,5.6161568E1,4.6497948E1,2.4501328E1,2.8906778E1,2.3519531E1,1.7599178E1,4.259463E1,2.7866653E1,4.5240784E1,3.2543755E1,6.937869E1,3.607872E1,1.8598442E1,2.4622551E1,8.102024E0,8.96682E0,1.7985077E1,1.7504795E1,9.470495E0,1.1966687E1,2.6286665E1,2.6108585E1,7.153186E0,2.5925987E1,0E0,0E0,0E0,0E0,0E0,0E0,0E0,0E0,0E0,0E0,0E0,0E0,0E0,0E0,0E0,0E0,0E0,0E0,0E0,0E0,0E0,0E0,0E0,0E0,0E0,0E0,0E0,0E0,0E0,0E0,0E0,0E0],"parents":[2147483647,0,0,1,1,2,2,3,3,4,4,5,5,6,6,7,7,8,8,9,9,10,10,11,11,12,12,13,13,14,14,15,15,16,16,17,17,18,18,19,19,20,20,21,21,22,22,23,23,24,24,25,25,26,26,27,27,28,28,29,29,30,30],"right_children":[2,4,6,8,10,12,14,16,18,20,22,24,26,28,30,32,34,36,38,40,42,44,46,48,50,52,54,56,58,60,62,-1,-1,-1,-1,-1,-1,-1,-1,-1,-1,-1,-1,-1,-1,-1,-1,-1,-1,-1,-1,-1,-1,-1,-1,-1,-1,-1,-1,-1,-1,-1,-1],"split_conditions":[7.451643E-1,1.008439E-2,-7.111993E-2,-9.9603736E-1,1.7696073E0,1.3786168E0,1.4134922E0,-7.8555185E-1,-1.0140914E0,2.1553085E0,-2.9914707E-1,8.542254E-1,-1.12957194E-1,1.4645915E0,-6.318591E-1,3.0798298E-1,-2.1574317E-1,-3.7019104E-1,-3.559654E-1,-8.656897E-1,4.289619E-2,2.909957E-1,6.24469E-1,4.5905104E-1,-7.0012754E-1,-4.4113734E-1,2.1341456E-1,2.064599E0,1.3786168E0,-1.4558378E-1,-4.4873253E-1,5.94575E-4,-1.5354103E-2,-5.0272224E-3,-1.5548267E-2,8.007479E-3,-1.2318459E-3,1.4176428E-3,-1.9716609E-3,1.7263134E-3,-5.731998E-3,-4.7881776E-4,-2.8332664E-2,7.402902E-3,-3.272727E-2,2.8046967E-2,-1.0433035E-2,1.0262263E-2,2.000429E-2,-2.660165E-2,3.2996163E-3,2.9635548E-3,-2.7988378E-2,-3.599014E-3,2.0122247E-2,3.1881751E-3,-6.911868E-3,-1.6897852E-2,1.4543138E-2,7.402902E-3,-2.7306175E-2,2.3354601E-2,7.7701625E-3],"split_indices":[20,44,26,19,29,54,55,20,25,30,47,27,5,5,5,47,16,5,36,14,36,44,5,36,19,5,44,44,54,25,47,0,0,0,0,0,0,0,0,0,0,0,0,0,0,0,0,0,0,0,0,0,0,0,0,0,0,0,0,0,0,0,0],"split_type":[0,0,0,0,0,0,0,0,0,0,0,0,0,0,0,0,0,0,0,0,0,0,0,0,0,0,0,0,0,0,0,0,0,0,0,0,0,0,0,0,0,0,0,0,0,0,0,0,0,0,0,0,0,0,0,0,0,0,0,0,0,0,0],"sum_hessian":[1.1878163E4,9.622226E3,2.255938E3,8.299501E3,1.3227242E3,6.991213E2,1.5568168E3,1.1808608E3,7.11864E3,1.2892722E3,3.345207E1,6.15305E2,8.3816284E1,1.3324143E3,2.2440251E2,7.0807336E2,4.7278748E2,1.2996235E3,5.8190166E3,1.2348129E3,5.445926E1,7.181309E0,2.627076E1,5.483513E2,6.695367E1,2.0707666E1,6.3108616E1,1.249082E3,8.333226E1,1.1190095E1,2.1321242E2,6.288625E2,7.921085E1,2.4551753E2,2.2726994E2,6.3414844E2,6.6547516E2,1.8335172E3,3.9854993E3,1.521078E2,1.0827051E3,1.9751595E1,3.4707664E1,2.6813092E0,4.5E0,2.4098236E1,2.1725237E0,4.5633136E2,9.201994E1,8.008785E0,5.8944878E1,4.940095E0,1.5767571E1,5.4047115E1,9.0615E0,1.1366779E3,1.1240414E2,7.176197E1,1.1570285E1,2.6813092E0,8.508785E0,5.907666E1,1.5413576E2],"tree_param":{"num_deleted":"0","num_feature":"56","num_nodes":"63","size_leaf_vector":"1"}},{"base_weights":[4.503383E-3,-5.465608E-2,2.2028804E-1,4.2054713E-2,-1.4102188E-1,1.538362E-1,6.0946566E-1,-3.9268216E-1,6.69333E-2,-2.1197286E-1,1.4207006E-1,2.2744784E-1,-9.8063275E-2,-3.1189106E-2,6.342499E-1,-6.698215E-1,2.744899E-1,9.867186E-2,-2.4604584E-1,-2.6622674E-1,1.2246928E-1,4.9943095E-1,1.0148042E-3,-4.3079738E-2,3.7663957E-1,4.4397193E-1,-2.169677E-1,8.7415916E-1,3.6997706E-1,-3.8469937E-3,-1.9219875E-2,2.6695056E-2,-2.5706142E-3,4.573165E-3,8.142585E-4,3.6545387E-3,-8.880123E-3,-4.577867E-3,-1.3400744E-2,-7.798892E-3,3.7486744E-3,-1.3718305E-3,1.3718585E-2,4.5666058E-4,-3.275717E-2,-2.5278279E-3,9.663876E-3,-1.4763447E-2,8.346627E-3,5.636929E-3,2.86721E-2,-1.7105108E-2,-1.5800031E-3,-3.0074036E-2,1.8393407E-2,-1.1598355E-2,1.0999817E-2],"categories":[],"categories_nodes":[],"categories_segments":[],"categories_sizes":[],"default_left":[0,0,0,0,0,0,0,0,0,0,0,0,0,0,0,0,0,0,0,0,0,0,0,0,0,0,0,0,0,0,0,0,0,0,0,0,0,0,0,0,0,0,0,0,0,0,0,0,0,0,0,0,0,0,0,0,0],"id":1,"left_children":[1,3,5,7,9,11,13,15,17,19,21,23,25,-1,27,29,31,33,35,37,39,41,43,45,47,49,51,53,55,-1,-1,-1,-1,-1,-1,-1,-1,-1,-1,-1,-1,-1,-1,-1,-1,-1,-1,-1,-1,-1,-1,-1,-1,-1,-1,-1,-1],"loss_changes":[1.517432E2,7.792793E1,6.6051445E1,4.7634354E1,9.902017E1,4.0556282E1,2.102298E1,4.4265816E1,4.139107E1,7.15437E1,4.9815357E1,6.830361E1,3.2001785E1,0E0,2.3083664E1,2.327333E1,3.0373104E1,2.8481281E1,3.264998E1,5.0973328E1,1.840802E1,2.9675285E1,2.540999E1,2.6469032E1,4.978311E1,1.393759E1,3.574345E1,2.2245483E1,3.0654657E1,0E0,0E0,0E0,0E0,0E0,0E0,0E0,0E0,0E0,0E0,0E0,0E0,0E0,0E0,0E0,0E0,0E0,0E0,0E0,0E0,0E0,0E0,0E0,0E0,0E0,0E0,0E0,0E0],"parents":[2147483647,0,0,1,1,2,2,3,3,4,4,5,5,6,6,7,7,8,8,9,9,10,10,11,11,12,12,14,14,15,15,16,16,17,17,18,18,19,19,20,20,21,21,22,22,23,23,24,24,25,25,26,26,27,27,28,28],"right_children":[2,4,6,8,10,12,14,16,18,20,22,24,26,-1,28,30,32,34,36,38,40,42,44,46,48,50,52,54,56,-1,-1,-1,-1,-1,-1,-1,-1,-1,-1,-1,-1,-1,-1,-1,-1,-1,-1,-1,-1,-1,-1,-1,-1,-1,-1,-1,-1],"split_conditions":[6.547081E-1,-1.9023097E-1,1.4134922E0,-1.8561836E0,1.2368002E0,1.1952173E0,-1.961606E0,2.2766213E0,9.5321983E-1,1.1212335E0,6.590959E-2,9.934587E-1,8.098567E-1,-3.1189106E-2,3.0493823E-1,-1.3209016E0,1.4803985E-4,-2.1574317E-1,1.7633134E-1,1.0927702E0,-1.0546105E0,-6.903284E-1,2.5324569E0,3.439125E-1,-1.469474E0,1.9728936E0,1.2867723E0,-1.742536E0,6.287737E-1,-3.8469937E-3,-1.9219875E-2,2.6695056E-2,-2.5706142E-3,4.573165E-3,8.142585E-4,3.6545387E-3,-8.880123E-3,-4.577867E-3,-1.3400744E-2,-7.798892E-3,3.7486744E-3,-1.3718305E-3,1.3718585E-2,4.5666058E-4,-3.275717E-2,-2.5278279E-3,9.663876E-3,-1.4763447E-2,8.346627E-3,5.636929E-3,2.86721E-2,-1.7105108E-2,-1.5800031E-3,-3.0074036E-2,1.8393407E-2,-1.1598355E-2,1.0999817E-2],"split_indices":[20,45,55,17,45,45,45,5,22,29,18,20,20,0,45,20,54,16,17,22,20,31,47,5,45,18,45,47,45,0,0,0,0,0,0,0,0,0,0,0,0,0,0,0,0,0,0,0,0,0,0,0,0,0,0,0,0],"split_type":[0,0,0,0,0,0,0,0,0,0,0,0,0,0,0,0,0,0,0,0,0,0,0,0,0,0,0,0,0,0,0,0,0,0,0,0,0,0,0,0,0,0,0,0,0,0,0,0,0,0,0,0,0,0,0,0,0],"sum_hessian":[1.1884843E4,9.328179E3,2.5566643E3,4.400781E3,4.927398E3,2.1849763E3,3.71688E2,2.3741022E2,4.16337E3,3.9401372E3,9.872604E2,1.6909371E3,4.940391E2,3.499718E0,3.6818826E2,1.6773155E2,6.9678665E1,3.7806658E3,3.8270465E2,3.3903516E3,5.4978577E2,2.7868256E2,7.085778E2,6.013065E2,1.0896306E3,8.838684E1,4.0565225E2,1.9178049E2,1.7640779E2,6.416793E1,1.03563614E2,1.8554304E1,5.1124363E1,1.1649806E3,2.615685E3,1.2090564E2,2.61799E2,3.104865E3,2.854865E2,6.129697E1,4.884888E2,6.9039474E1,2.0964307E2,7.0024164E2,8.336208E0,5.197823E2,8.152422E1,3.7768402E1,1.0518622E3,7.704915E1,1.1337688E1,7.117447E1,3.3447778E2,2.9999385E0,1.8878055E2,2.7750862E1,1.4865692E2],"tree_param":{"num_deleted":"0","num_feature":"56","num_nodes":"57","size_leaf_vector":"1"}},{"base_weights":[3.4835231E-3,-5.1576413E-2,2.0429243E-1,-1.3285074E-2,-2.9776028E-1,1.5280604E-1,5.096949E-1,-3.6946556E-1,2.9329632E-3,-6.90994E-1,-2.2781284E-1,3.568558E-1,5.8937814E-2,-1.0101486E0,5.517586E-1,-5.474604E-1,9.1914095E-2,1.416636E-1,-4.5347705E-2,4.0746272E-1,-7.6881105E-1,-1.486557E-1,-5.6488794E-1,1.358137E-1,6.410607E-1,-2.2091419E-1,1.6383348E-1,2.1886322E-1,-1.5310706E0,6.599605E-1,3.7963635E-3,-2.2190744E-2,-7.6238117E-3,1.3073084E-2,-3.7598393E-3,-4.946359E-4,4.7269394E-3,-1.9194115E-3,9.450481E-4,-2.665868E-2,1.678567E-2,-2.2136552E-2,-1.0398579E-2,-4.0554204E-3,7.8053563E-3,-6.8889675E-3,-1.9555049E-2,2.9855957E-2,1.6965563E-3,1.531131E-2,-9.697155E-3,7.945588E-3,-6.8162703E-3,3.7445854E-3,-2.4394125E-2,-1.1575827E-2,1.7053926E-2,-7.818747E-3,-3.333215E-2,2.386328E-2,1.1292355E-2,4.5251288E-3,-2.8789675E-2],"categories":[],"categories_nodes":[],"categories_segments":[],"categories_sizes":[],"default_left":[0,0,0,0,0,0,0,0,0,0,0,0,0,0,0,0,0,0,0,0,0,0,0,0,0,0,0,0,0,0,0,0,0,0,0,0,0,0,0,0,0,0,0,0,0,0,0,0,0,0,0,0,0,0,0,0,0,0,0,0,0,0,0],"id":2,"left_children":[1,3,5,7,9,11,13,15,17,19,21,23,25,27,29,31,33,35,37,39,41,43,45,47,49,51,53,55,57,59,61,-1,-1,-1,-1,-1,-1,-1,-1,-1,-1,-1,-1,-1,-1,-1,-1,-1,-1,-1,-1,-1,-1,-1,-1,-1,-1,-1,-1,-1,-1,-1,-1],"loss_changes":[1.3123466E2,8.7808876E1,4.008387E1,4.657448E1,3.4329956E1,4.1870434E1,2.4086617E1,2.8886337E1,5.1663887E1,1.6456367E1,2.8358196E1,4.3191673E1,4.404538E1,6.9070044E0,2.1269821E1,2.3270493E1,1.5627351E1,3.1379189E1,2.6827557E1,1.099952E1,1.4290298E1,2.5294573E1,1.8080765E1,2.677262E1,4.258407E1,3.0462608E1,3.5544067E1,2.4807925E0,4.818554E-1,1.4557709E1,1.9644293E1,0E0,0E0,0E0,0E0,0E0,0E0,0E0,0E0,0E0,0E0,0E0,0E0,0E0,0E0,0E0,0E0,0E0,0E0,0E0,0E0,0E0,0E0,0E0,0E0,0E0,0E0,0E0,0E0,0E0,0E0,0E0,0E0],"parents":[2147483647,0,0,1,1,2,2,3,3,4,4,5,5,6,6,7,7,8,8,9,9,10,10,11,11,12,12,13,13,14,14,15,15,16,16,17,17,18,18,19,19,20,20,21,21,22,22,23,23,24,24,25,25,26,26,27,27,28,28,29,29,30,30],"right_children":[2,4,6,8,10,12,14,16,18,20,22,24,26,28,30,32,34,36,38,40,42,44,46,48,50,52,54,56,58,60,62,-1,-1,-1,-1,-1,-1,-1,-1,-1,-1,-1,-1,-1,-1,-1,-1,-1,-1,-1,-1,-1,-1,-1,-1,-1,-1,-1,-1,-1,-1,-1,-1],"split_conditions":[6.547081E-1,8.4280884E-1,1.4134922E0,-1.8561836E0,-7.938045E-1,-6.573683E-2,-9.9603736E-1,2.2766213E0,-3.9273694E-1,-3.4512818E-1,9.804012E-1,1.240209E0,-2.095018E-1,-7.9784465E-1,1.0595434E0,-2.8875265E0,1.4803985E-4,-9.221212E-1,2.6084313E-1,-3.3064532E0,-8.366476E-1,2.1165512E0,4.0743363E-1,-8.6042315E-1,8.542254E-1,-9.648723E-1,2.3861694E0,-9.351798E-1,-7.1928537E-1,-1.2099204E0,2.1453422E-1,-2.2190744E-2,-7.6238117E-3,1.3073084E-2,-3.7598393E-3,-4.946359E-4,4.7269394E-3,-1.9194115E-3,9.450481E-4,-2.665868E-2,1.678567E-2,-2.2136552E-2,-1.0398579E-2,-4.0554204E-3,7.8053563E-3,-6.8889675E-3,-1.9555049E-2,2.9855957E-2,1.6965563E-3,1.531131E-2,-9.697155E-3,7.945588E-3,-6.8162703E-3,3.7445854E-3,-2.4394125E-2,-1.1575827E-2,1.7053926E-2,-7.818747E-3,-3.333215E-2,2.386328E-2,1.1292355E-2,4.5251288E-3,-2.8789675E-2],"split_indices":[20,22,55,17,27,26,19,5,19,26,30,20,22,6,30,17,54,19,19,20,19,17,36,5,27,30,5,44,31,31,31,0,0,0,0,0,0,0,0,0,0,0,0,0,0,0,0,0,0,0,0,0,0,0,0,0,0,0,0,0,0,0,0],"split_type":[0,0,0,0,0,0,0,0,0,0,0,0,0,0,0,0,0,0,0,0,0,0,0,0,0,0,0,0,0,0,0,0,0,0,0,0,0,0,0,0,0,0,0,0,0,0,0,0,0,0,0,0,0,0,0,0,0,0,0,0,0,0,0],"sum_hessian":[1.1867479E4,9.314321E3,2.5531572E3,8.061494E3,1.2528275E3,2.186111E3,3.6704602E2,3.5013126E2,7.711363E3,1.8785526E2,1.0649723E3,6.879188E2,1.4981924E3,9.265096E0,3.577809E2,2.5252394E2,9.7607315E1,1.9903416E3,5.721021E3,1.2147426E1,1.7570782E2,8.6360767E2,2.013646E2,3.8779034E2,3.0012845E2,4.0815808E2,1.0900343E3,2.9306536E0,6.334442E0,2.986119E2,5.9169014E1,5.6352066E1,1.9617188E2,3.2017174E1,6.559014E1,7.220894E2,1.2682521E3,3.6988745E3,2.0221469E3,1.9999832E0,1.0147443E1,7.30494E1,1.02658424E2,7.8536957E2,7.8238144E1,1.3246971E2,6.889487E1,1.3018757E1,3.7477158E2,2.705328E2,2.9595648E1,6.5927345E1,3.4223074E2,1.0727585E3,1.727578E1,1.3360834E0,1.5945703E0,1.0857242E0,5.248718E0,4.354915E1,2.5506276E2,5.1997593E1,7.1714187E0],"tree_param":{"num_deleted":"0","num_feature":"56","num_nodes":"63","size_leaf_vector":"1"}},{"base_weights":[1.6072796E-3,-5.4907877E-2,2.0905061E-1,-2.1469133E-2,-3.3075818E-1,2.775711E-1,-2.7589388E-2,-4.8011992E-2,2.493148E-1,-2.5997892E-1,-7.9512537E-1,2.2074716E-1,8.5955465E-1,4.5685792E-1,-2.3752715E-1,5.6676295E-2,-1.6675313E-1,5.4092765E-1,8.8452466E-2,-4.0212962E-1,2.0036757E-2,-9.5903E-1,3.435819E-1,2.4714546E-1,-8.492043E-1,2.2229765E-1,1.0135276E0,3.16842E-1,1.3953757E0,-7.227502E-1,-2.1910874E-2,-7.4200374E-3,1.6751807E-3,-4.102663E-3,1.8130617E-3,-2.0187212E-2,1.36147365E-2,2.5572076E-3,-2.4046952E-2,-5.9758797E-3,-2.4486689E-2,-3.9649424E-3,6.7321854E-3,-2.4437312E-2,-4.3048025E-3,-9.932341E-3,1.7966175E-2,6.833078E-5,7.517221E-3,1.2821467E-2,-2.9246673E-2,-3.1318231E-3,2.6831366E-2,3.0341022E-2,1.6044814E-2,1.2590379E-2,-1.0977644E-2,3.0981941E-2,-1.1550611E-2,1.4482413E-2,-1.8024612E-2,-6.2396973E-3,7.3477332E-3],"categories":[],"categories_nodes":[],"categories_segments":[],"categories_sizes":[],"default_left":[0,0,0,0,0,0,0,0,0,0,0,0,0,0,0,0,0,0,0,0,0,0,0,0,0,0,0,0,0,0,0,0,0,0,0,0,0,0,0,0,0,0,0,0,0,0,0,0,0,0,0,0,0,0,0,0,0,0,0,0,0,0,0],"id":3,"left_children":[1,3,5,7,9,11,13,15,17,19,21,23,25,27,29,31,33,35,37,39,41,43,45,47,49,51,53,55,57,59,61,-1,-1,-1,-1,-1,-1,-1,-1,-1,-1,-1,-1,-1,-1,-1,-1,-1,-1,-1,-1,-1,-1,-1,-1,-1,-1,-1,-1,-1,-1,-1,-1],"loss_changes":[1.3951245E2,8.625834E1,4.1320618E1,5.9970173E1,3.302375E1,6.515329E1,5.838547E1,9.44621E1,3.489409E1,3.4988407E1,2.519661E1,5.109169E1,1.698639E1,2.236795E1,4.1877323E1,4.681167E1,3.5193108E1,5.8042328E1,2.4634233E1,4.9162857E1,2.0580656E1,2.2558052E1,8.603007E0,5.517684E1,4.077752E1,1.5229441E1,1.3783386E1,4.158328E1,7.6398087E0,3.2457443E1,3.1537502E1,0E0,0E0,0E0,0E0,0E0,0E0,0E0,0E0,0E0,0E0,0E0,0E0,0E0,0E0,0E0,0E0,0E0,0E0,0E0,0E0,0E0,0E0,0E0,0E0,0E0,0E0,0E0,0E0,0E0,0E0,0E0,0E0],"parents":[2147483647,0,0,1,1,2,2,3,3,4,4,5,5,6,6,7,7,8,8,9,9,10,10,11,11,12,12,13,13,14,14,15,15,16,16,17,17,18,18,19,19,20,20,21,21,22,22,23,23,24,24,25,25,26,26,27,27,28,28,29,29,30,30],"right_children":[2,4,6,8,10,12,14,16,18,20,22,24,26,28,30,32,34,36,38,40,42,44,46,48,50,52,54,56,58,60,62,-1,-1,-1,-1,-1,-1,-1,-1,-1,-1,-1,-1,-1,-1,-1,-1,-1,-1,-1,-1,-1,-1,-1,-1,-1,-1,-1,-1,-1,-1,-1,-1],"split_conditions":[6.547081E-1,9.741353E-1,1.1952173E0,1.2867723E0,7.074186E-1,1.0783045E0,9.2302877E-1,-1.9023097E-1,7.175067E-2,-3.8024331E-3,1.4846876E0,2.5929239E0,8.641254E-1,1.8728904E0,1.3719809E0,-1.8561836E0,1.1212335E0,-1.2312957E0,1.7098397E0,2.0609556E-1,1.0943935E0,1.9869788E0,-3.6463645E-1,9.6951187E-1,1.5654978E0,1.008439E-2,1.1008338E0,6.1822855E-1,7.4928695E-1,-2.885143E-1,1.01893276E-1,-7.4200374E-3,1.6751807E-3,-4.102663E-3,1.8130617E-3,-2.0187212E-2,1.36147365E-2,2.5572076E-3,-2.4046952E-2,-5.9758797E-3,-2.4486689E-2,-3.9649424E-3,6.7321854E-3,-2.4437312E-2,-4.3048025E-3,-9.932341E-3,1.7966175E-2,6.833078E-5,7.517221E-3,1.2821467E-2,-2.9246673E-2,-3.1318231E-3,2.6831366E-2,3.0341022E-2,1.6044814E-2,1.2590379E-2,-1.0977644E-2,3.0981941E-2,-1.1550611E-2,1.4482413E-2,-1.8024612E-2,-6.2396973E-3,7.3477332E-3],"split_indices":[20,22,45,45,47,45,20,45,18,19,29,19,20,26,45,17,29,25,26,20,45,47,52,20,20,44,45,22,31,47,27,0,0,0,0,0,0,0,0,0,0,0,0,0,0,0,0,0,0,0,0,0,0,0,0,0,0,0,0,0,0,0,0],"split_type":[0,0,0,0,0,0,0,0,0,0,0,0,0,0,0,0,0,0,0,0,0,0,0,0,0,0,0,0,0,0,0,0,0,0,0,0,0,0,0,0,0,0,0,0,0,0,0,0,0,0,0,0,0,0,0,0,0,0,0,0,0,0,0],"sum_hessian":[1.1898065E4,9.351193E3,2.546872E3,8.341151E3,1.0100417E3,1.9748652E3,5.720068E2,7.5972725E3,7.438792E2,8.778056E2,1.3223605E2,1.8004513E3,1.7441391E2,1.7258276E2,3.9942398E2,4.0378335E3,3.5594387E3,2.6362128E2,4.802579E2,5.819441E2,2.958615E2,1.1573503E2,1.650102E1,1.7578499E3,4.260141E1,3.4416416E1,1.3999748E2,1.5134192E2,2.1240856E1,1.2216092E2,2.7726306E2,2.3971213E2,3.7981213E3,3.0977568E3,4.616819E2,2.129293E1,2.4232835E2,4.6690436E2,1.3353566E1,5.181819E2,6.3762253E1,1.7533669E2,1.2052483E2,8.504102E1,3.0694004E1,6.6036983E0,9.897323E0,6.078619E2,1.149988E3,1.2404748E1,3.0196661E1,2.635498E1,8.061435E0,3.9554367E1,1.0044312E2,1.1138529E2,3.9956623E1,1.9904766E1,1.3360898E0,1.3078831E1,1.0908209E2,1.5899274E2,1.18270325E2],"tree_param":{"num_deleted":"0","num_feature":"56","num_nodes":"63","size_leaf_vector":"1"}},{"base_weights":[-5.532745E-3,-6.0850162E-2,1.96459E-1,-2.4158934E-2,-2.959894E-1,4.2519253E-1,1.2509732E-1,-7.10364E-1,-1.407568E-2,-4.7997153E-1,-1.4212416E-1,1.7978823E-1,7.106672E-1,-2.070602E-1,2.4133103E-1,-3.9722048E-2,-1.0495538E0,6.484027E-2,-8.725464E-2,-3.854253E-1,-1.0139294E0,-2.0321196E-1,4.3213224E-1,-4.365319E-1,3.0456144E-1,-7.809636E-1,7.974651E-1,3.783307E-1,-3.3083037E-1,5.2313286E-1,1.5689519E-1,5.4035145E-3,-3.0491967E-2,-8.350768E-3,-2.5758462E-2,-5.870954E-3,1.8196338E-3,-3.0842854E-3,4.445106E-3,-1.4726222E-2,-4.4365693E-3,2.1988265E-2,-2.1697296E-2,1.1967438E-3,-6.6040177E-3,-1.8926335E-2,1.2451713E-2,-2.5868688E-2,2.564275E-3,1.4505541E-2,2.1184199E-3,1.3180005E-2,-2.7375214E-2,2.1757042E-2,9.454306E-3,-1.2916786E-3,2.1866892E-2,-1.9746754E-2,-4.6959883E-3,7.786336E-3,2.4798803E-2,2.4819968E-3,1.9875413E-2],"categories":[],"categories_nodes":[],"categories_segments":[],"categories_sizes":[],"default_left":[0,0,0,0,0,0,0,0,0,0,0,0,0,0,0,0,0,0,0,0,0,0,0,0,0,0,0,0,0,0,0,0,0,0,0,0,0,0,0,0,0,0,0,0,0,0,0,0,0,0,0,0,0,0,0,0,0,0,0,0,0,0,0],"id":4,"left_children":[1,3,5,7,9,11,13,15,17,19,21,23,25,27,29,31,33,35,37,39,41,43,45,47,49,51,53,55,57,59,61,-1,-1,-1,-1,-1,-1,-1,-1,-1,-1,-1,-1,-1,-1,-1,-1,-1,-1,-1,-1,-1,-1,-1,-1,-1,-1,-1,-1,-1,-1,-1,-1],"loss_changes":[1.3235954E2,8.022009E1,4.1515144E1,5.5654076E1,3.5460884E1,4.2268143E1,7.5044815E1,2.645491E1,4.5797916E1,2.8444168E1,2.4114021E1,2.5260899E1,3.679756E1,3.6647293E1,3.416726E1,1.8893759E1,1.1110344E1,3.577543E1,8.5309685E1,2.7784561E1,1.3981438E1,2.0721233E1,1.7961334E1,2.6988024E1,2.2682507E1,1.4334284E1,2.4432281E1,2.8079546E1,2.603469E1,3.1307594E1,3.0313208E1,0E0,0E0,0E0,0E0,0E0,0E0,0E0,0E0,0E0,0E0,0E0,0E0,0E0,0E0,0E0,0E0,0E0,0E0,0E0,0E0,0E0,0E0,0E0,0E0,0E0,0E0,0E0,0E0,0E0,0E0,0E0,0E0],"parents":[2147483647,0,0,1,1,2,2,3,3,4,4,5,5,6,6,7,7,8,8,9,9,10,10,11,11,12,12,13,13,14,14,15,15,16,16,17,17,18,18,19,19,20,20,21,21,22,22,23,23,24,24,25,25,26,26,27,27,28,28,29,29,30,30],"right_children":[2,4,6,8,10,12,14,16,18,20,22,24,26,28,30,32,34,36,38,40,42,44,46,48,50,52,54,56,58,60,62,-1,-1,-1,-1,-1,-1,-1,-1,-1,-1,-1,-1,-1,-1,-1,-1,-1,-1,-1,-1,-1,-1,-1,-1,-1,-1,-1,-1,-1,-1,-1,-1],"split_conditions":[6.547081E-1,8.4280884E-1,-1.5810388E-1,-2.0637352E0,-2.802927E-1,1.2102875E0,-2.095018E-1,1.4803985E-4,-1.9023097E-1,7.074186E-1,2.1165512E0,-5.93355E-1,-1.469474E0,-9.648723E-1,-3.6428842E-1,1.0669298E0,-1.945552E0,-1.6710516E0,1.2720506E0,-1.2261064E-1,-2.0051146E0,-8.925022E-2,-5.8361095E-1,-3.6311394E-1,-5.9262466E-1,-1.3763083E0,-1.7836848E-1,-1.1160301E0,-7.1252483E-1,1.7123365E0,2.2909136E0,5.4035145E-3,-3.0491967E-2,-8.350768E-3,-2.5758462E-2,-5.870954E-3,1.8196338E-3,-3.0842854E-3,4.445106E-3,-1.4726222E-2,-4.4365693E-3,2.1988265E-2,-2.1697296E-2,1.1967438E-3,-6.6040177E-3,-1.8926335E-2,1.2451713E-2,-2.5868688E-2,2.564275E-3,1.4505541E-2,2.1184199E-3,1.3180005E-2,-2.7375214E-2,2.1757042E-2,9.454306E-3,-1.2916786E-3,2.1866892E-2,-1.9746754E-2,-4.6959883E-3,7.786336E-3,2.4798803E-2,2.4819968E-3,1.9875413E-2],"split_indices":[20,22,18,47,35,20,22,54,45,47,17,19,45,30,47,29,19,17,45,25,11,29,27,30,31,18,45,30,45,17,47,0,0,0,0,0,0,0,0,0,0,0,0,0,0,0,0,0,0,0,0,0,0,0,0,0,0,0,0,0,0,0,0],"split_type":[0,0,0,0,0,0,0,0,0,0,0,0,0,0,0,0,0,0,0,0,0,0,0,0,0,0,0,0,0,0,0,0,0,0,0,0,0,0,0,0,0,0,0,0,0,0,0,0,0,0,0,0,0,0,0,0,0,0,0,0,0,0,0],"sum_hessian":[1.18436045E4,9.297964E3,2.54564E3,8.043894E3,1.2540701E3,6.041659E2,1.941474E3,1.1548141E2,7.9284126E3,5.7017365E2,6.838964E2,3.2576035E2,2.7840558E2,5.0307385E2,1.4384001E3,3.916397E1,7.631743E1,3.8147324E3,4.1136807E3,4.8586487E2,8.430874E1,6.1872437E2,6.517205E1,5.4425537E1,2.713348E2,1.4869761E1,2.6353583E2,8.744271E1,4.1563113E2,3.304243E2,1.1079758E3,3.3078457E1,6.0855165E0,2.1654385E1,5.4663048E1,2.586411E2,3.5560913E3,3.3824255E3,7.31255E2,1.533837E2,3.3248117E2,2.2671127E0,8.2041626E1,2.0161696E2,4.171074E2,7.429637E0,5.774241E1,2.1107822E1,3.3317715E1,8.617245E1,1.8516235E2,4.2752576E0,1.0594504E1,1.3788818E2,1.25647644E2,5.4557068E1,3.2885643E1,5.1854015E1,3.6377713E2,2.7974387E2,5.068042E1,1.067299E3,4.067686E1],"tree_param":{"num_deleted":"0","num_feature":"56","num_nodes":"63","size_leaf_vector":"1"}},{"base_weights":[-2.8920837E-4,-5.331783E-2,1.9211905E-1,-1.7069986E-2,-2.8823632E-1,1.4293228E-1,4.7687158E-1,-7.549302E-1,-6.7686765E-3,-2.1451418E-1,-7.254899E-1,2.1004154E-1,-8.97235E-2,-3.2313958E-2,5.0783503E-1,-1.0318766E0,-1.18034564E-1,8.1735216E-2,-8.944519E-2,-3.2158735E-1,2.4130672E-2,-3.0414686E-1,-1.099647E0,1.4433074E-1,7.5897276E-1,-5.8714867E-1,2.88898E-2,1.0329593E0,3.7118316E-1,3.8292347E-3,-2.3012735E-2,4.271306E-3,-3.3343684E-2,4.7968603E-3,1.9154338E-4,-3.366472E-3,4.727059E-3,-4.4069093E-4,-9.065019E-3,1.9177344E-3,-2.0333614E-2,-2.9615039E-2,3.2005908E-3,-2.4761636E-2,7.234823E-3,4.4535534E-3,-4.271775E-3,2.4448566E-3,1.78429E-2,-1.6805163E-2,2.1577897E-2,-3.1539418E-2,1.2205791E-3,3.0861275E-2,1.1654243E-2,1.1837474E-2,4.0370072E-4],"categories":[],"categories_nodes":[],"categories_segments":[],"categories_sizes":[],"default_left":[0,0,0,0,0,0,0,0,0,0,0,0,0,0,0,0,0,0,0,0,0,0,0,0,0,0,0,0,0,0,0,0,0,0,0,0,0,0,0,0,0,0,0,0,0,0,0,0,0,0,0,0,0,0,0,0,0],"id":5,"left_children":[1,3,5,7,9,11,13,15,17,19,21,23,25,-1,27,29,31,33,35,37,39,41,43,45,47,49,51,53,55,-1,-1,-1,-1,-1,-1,-1,-1,-1,-1,-1,-1,-1,-1,-1,-1,-1,-1,-1,-1,-1,-1,-1,-1,-1,-1,-1,-1],"loss_changes":[1.2122571E2,7.930797E1,3.588584E1,6.1335705E1,3.997724E1,3.4217648E1,2.5291374E1,1.9476074E1,5.8252674E1,2.726696E1,2.7916962E1,6.1221245E1,2.899022E1,0E0,2.63778E1,1.1451721E1,1.8233353E1,4.386512E1,1.0581462E2,2.90363E1,2.4842659E1,4.7025845E1,1.9572968E1,4.2664276E1,1.5284752E1,4.0797268E1,2.0609804E1,1.6658539E1,2.3031757E1,0E0,0E0,0E0,0E0,0E0,0E0,0E0,0E0,0E0,0E0,0E0,0E0,0E0,0E0,0E0,0E0,0E0,0E0,0E0,0E0,0E0,0E0,0E0,0E0,0E0,0E0,0E0,0E0],"parents":[2147483647,0,0,1,1,2,2,3,3,4,4,5,5,6,6,7,7,8,8,9,9,10,10,11,11,12,12,14,14,15,15,16,16,17,17,18,18,19,19,20,20,21,21,22,22,23,23,24,24,25,25,26,26,27,27,28,28],"right_children":[2,4,6,8,10,12,14,16,18,20,22,24,26,-1,28,30,32,34,36,38,40,42,44,46,48,50,52,54,56,-1,-1,-1,-1,-1,-1,-1,-1,-1,-1,-1,-1,-1,-1,-1,-1,-1,-1,-1,-1,-1,-1,-1,-1,-1,-1,-1,-1],"split_conditions":[6.547081E-1,8.4280884E-1,1.4134922E0,-2.0637352E0,7.074186E-1,1.1952173E0,-1.961606E0,1.0135106E0,-1.9023097E-1,1.1830105E-1,9.2542535E-1,1.0610944E0,1.2970084E0,-3.2313958E-2,-9.537914E-1,-2.9782987E0,3.2079676E-1,-1.0140914E0,1.2257968E0,-8.1547864E-2,1.9869245E0,1.1723557E0,1.707758E0,7.184824E-1,8.2796407E-1,1.6095146E0,-1.4245802E0,-6.303152E-1,7.072899E-1,3.8292347E-3,-2.3012735E-2,4.271306E-3,-3.3343684E-2,4.7968603E-3,1.9154338E-4,-3.366472E-3,4.727059E-3,-4.4069093E-4,-9.065019E-3,1.9177344E-3,-2.0333614E-2,-2.9615039E-2,3.2005908E-3,-2.4761636E-2,7.234823E-3,4.4535534E-3,-4.271775E-3,2.4448566E-3,1.78429E-2,-1.6805163E-2,2.1577897E-2,-3.1539418E-2,1.2205791E-3,3.0861275E-2,1.1654243E-2,1.1837474E-2,4.0370072E-4],"split_indices":[20,22,55,47,47,45,45,46,45,19,45,45,45,0,45,19,33,25,45,33,25,47,31,47,20,47,30,47,53,0,0,0,0,0,0,0,0,0,0,0,0,0,0,0,0,0,0,0,0,0,0,0,0,0,0,0,0],"split_type":[0,0,0,0,0,0,0,0,0,0,0,0,0,0,0,0,0,0,0,0,0,0,0,0,0,0,0,0,0,0,0,0,0,0,0,0,0,0,0,0,0,0,0,0,0,0,0,0,0,0,0,0,0,0,0,0,0],"sum_hessian":[1.1879207E4,9.313176E3,2.566032E3,8.069177E3,1.2439985E3,2.1893552E3,3.7667667E2,1.1010786E2,7.959069E3,1.0657935E3,1.782051E2,1.6992935E3,4.900618E2,4.746089E0,3.719306E2,7.6306656E1,3.3801197E1,3.8440671E3,4.115002E3,7.3546405E2,3.3032938E2,8.4670006E1,9.353508E1,1.5187515E3,1.8054198E2,9.359694E1,3.9646487E2,7.54465E1,2.9648407E2,6.698088E0,6.960857E1,2.8551754E1,5.2494435E0,1.2038811E3,2.640186E3,3.3133064E3,8.016954E2,2.2491618E2,5.1054785E2,3.098738E2,2.0455576E1,2.333354E1,6.1336468E1,8.558095E1,7.95413E0,1.2463164E3,2.7243512E2,3.1560625E1,1.4898135E2,8.16831E1,1.1913842E1,6.8359065E0,3.8962897E2,3.423408E1,4.1212425E1,1.8161018E2,1.148739E2],"tree_param":{"num_deleted":"0","num_feature":"56","num_nodes":"57","size_leaf_vector":"1"}},{"base_weights":[-7.124793E-3,-5.6010712E-2,1.7271188E-1,3.823051E-2,-1.4049664E-1,1.1517225E-1,5.062599E-1,6.4913906E-2,-2.8788826E-1,-2.1076766E-1,1.3753362E-1,3.180061E-1,2.221531E-2,-3.202825E-2,5.3911024E-1,-1.12103276E-1,1.10173054E-1,-8.729473E-1,-1.5066737E-1,-2.426646E-1,1.1494939E-1,1.8577303E-1,-7.5155044E-1,-6.461732E-1,3.7421465E-1,-2.3922491E-1,1.216837E-1,8.0777806E-1,2.3216245E-1,2.4488675E-3,-9.3998015E-3,6.560656E-3,6.0773164E-4,-2.6039774E-2,-5.449349E-3,-3.733815E-3,2.983073E-2,-1.204449E-2,-4.2083887E-3,-1.1331291E-3,9.356974E-3,6.981563E-3,-8.453039E-4,-2.0159794E-2,1.5161191E-2,-1.9759089E-2,3.2204326E-2,3.2449018E-3,1.2683596E-2,-1.0531259E-2,-5.096141E-4,3.5065203E-3,-7.1068886E-3,1.9012336E-2,8.1491104E-4,-7.6881093E-3,1.1713272E-2],"categories":[],"categories_nodes":[],"categories_segments":[],"categories_sizes":[],"default_left":[0,0,0,0,0,0,0,0,0,0,0,0,0,0,0,0,0,0,0,0,0,0,0,0,0,0,0,0,0,0,0,0,0,0,0,0,0,0,0,0,0,0,0,0,0,0,0,0,0,0,0,0,0,0,0,0,0],"id":6,"left_children":[1,3,5,7,9,11,13,15,17,19,21,23,25,-1,27,29,31,33,35,37,39,41,43,45,47,49,51,53,55,-1,-1,-1,-1,-1,-1,-1,-1,-1,-1,-1,-1,-1,-1,-1,-1,-1,-1,-1,-1,-1,-1,-1,-1,-1,-1,-1,-1],"loss_changes":[1.0461785E2,7.45014E1,4.875583E1,3.8512936E1,9.6421974E1,4.0917664E1,2.6752274E1,3.277899E1,2.674341E1,4.0948975E1,4.285724E1,3.7205307E1,3.8762936E1,0E0,3.023645E1,7.000254E1,5.6614716E1,1.5976261E1,1.6391018E1,4.146997E1,2.134287E1,3.5226814E1,2.0684616E1,3.08479E1,3.5445557E1,2.5219345E1,2.7688831E1,2.1471085E1,3.806206E1,0E0,0E0,0E0,0E0,0E0,0E0,0E0,0E0,0E0,0E0,0E0,0E0,0E0,0E0,0E0,0E0,0E0,0E0,0E0,0E0,0E0,0E0,0E0,0E0,0E0,0E0,0E0,0E0],"parents":[2147483647,0,0,1,1,2,2,3,3,4,4,5,5,6,6,7,7,8,8,9,9,10,10,11,11,12,12,14,14,15,15,16,16,17,17,18,18,19,19,20,20,21,21,22,22,23,23,24,24,25,25,26,26,27,27,28,28],"right_children":[2,4,6,8,10,12,14,16,18,20,22,24,26,-1,28,30,32,34,36,38,40,42,44,46,48,50,52,54,56,-1,-1,-1,-1,-1,-1,-1,-1,-1,-1,-1,-1,-1,-1,-1,-1,-1,-1,-1,-1,-1,-1,-1,-1,-1,-1,-1,-1],"split_conditions":[6.547081E-1,-1.9023097E-1,1.4134922E0,8.232418E-1,1.2368002E0,-7.111993E-2,-1.961606E0,-1.0496876E0,-6.133283E-1,1.2463247E0,1.892234E0,-1.5328668E0,-2.095018E-1,-3.202825E-2,3.0493823E-1,-7.8555185E-1,-1.0140914E0,1.1830105E-1,2.2218661E0,-8.578117E-1,2.6896396E-1,8.80915E-1,1.6058383E0,5.9142035E-1,1.240209E0,-3.313973E-1,1.545951E0,9.4162273E-1,3.9444968E-1,2.4488675E-3,-9.3998015E-3,6.560656E-3,6.0773164E-4,-2.6039774E-2,-5.449349E-3,-3.733815E-3,2.983073E-2,-1.204449E-2,-4.2083887E-3,-1.1331291E-3,9.356974E-3,6.981563E-3,-8.453039E-4,-2.0159794E-2,1.5161191E-2,-1.9759089E-2,3.2204326E-2,3.2449018E-3,1.2683596E-2,-1.0531259E-2,-5.096141E-4,3.5065203E-3,-7.1068886E-3,1.9012336E-2,8.1491104E-4,-7.6881093E-3,1.1713272E-2],"split_indices":[20,45,55,26,45,26,45,19,54,24,25,45,22,0,45,20,25,19,19,19,19,55,45,19,20,31,45,30,25,0,0,0,0,0,0,0,0,0,0,0,0,0,0,0,0,0,0,0,0,0,0,0,0,0,0,0,0],"split_type":[0,0,0,0,0,0,0,0,0,0,0,0,0,0,0,0,0,0,0,0,0,0,0,0,0,0,0,0,0,0,0,0,0,0,0,0,0,0,0,0,0,0,0,0,0,0,0,0,0,0,0,0,0,0,0,0,0],"sum_hessian":[1.18978125E4,9.355381E3,2.5424324E3,4.422631E3,4.9327495E3,2.1695188E3,3.7291354E2,4.0888757E3,3.3375537E2,3.9377427E3,9.950066E2,6.810448E2,1.488474E3,4.9902654E0,3.6792328E2,8.322622E2,3.2566135E3,6.2389217E1,2.7136615E2,3.586753E3,3.5098993E2,9.445488E2,5.045774E1,3.6937496E1,6.441073E2,4.0984436E2,1.0786296E3,1.953255E2,1.7259776E2,5.0316388E2,3.2909836E2,8.7212756E2,2.3844858E3,3.5707817E1,2.6681398E1,2.6640854E2,4.957619E0,2.9373148E2,3.2930215E3,2.3671902E2,1.1427091E2,5.5008527E2,3.944636E2,4.3415054E1,7.042687E0,3.256669E1,4.3708096E0,3.5570102E2,2.8840628E2,1.7420102E2,2.3564334E2,9.701659E2,1.0846372E2,1.6445999E2,3.0865507E1,6.2864193E1,1.0973357E2],"tree_param":{"num_deleted":"0","num_feature":"56","num_nodes":"57","size_leaf_vector":"1"}},{"base_weights":[-5.9329607E-3,-5.7623178E-2,1.8545924E-1,-3.4303788E-2,-3.1567127E-1,3.3474046E-1,6.67272E-2,-7.039455E-1,-2.4586516E-2,-2.4490304E-1,-8.3198375E-1,-3.9683014E-1,3.7825197E-1,-3.554187E-1,1.6756766E-1,-3.8157564E-1,-1.4082097E0,5.6858085E-2,-9.913457E-2,-4.9950597E-1,-9.4392166E-2,-3.239155E-1,-1.1702251E0,1.0992706E0,-8.372491E-1,2.0745982E-1,5.893089E-1,2.3366559E-1,-5.5309075E-1,5.321245E-2,4.8906565E-1,1.6058454E-2,-1.4188233E-2,2.043375E-2,-3.0032322E-2,-7.101264E-3,1.5987899E-3,-3.3502455E-3,3.5253614E-3,-2.0073662E-2,-5.3627137E-3,-4.3254006E-3,5.9475717E-3,-1.3487918E-2,2.108408E-2,1.0036153E-2,-2.5918782E-2,3.17201E-2,2.0286392E-3,-3.462669E-2,-4.3203915E-3,6.819708E-3,-4.2275335E-3,1.4222718E-2,-1.4188031E-3,1.1704198E-2,-3.7803815E-3,-1.2560504E-2,9.541441E-3,7.2029005E-3,-4.9381115E-4,5.494165E-3,1.7437758E-2],"categories":[],"categories_nodes":[],"categories_segments":[],"categories_sizes":[],"default_left":[0,0,0,0,0,0,0,0,0,0,0,0,0,0,0,0,0,0,0,0,0,0,0,0,0,0,0,0,0,0,0,0,0,0,0,0,0,0,0,0,0,0,0,0,0,0,0,0,0,0,0,0,0,0,0,0,0,0,0,0,0,0,0],"id":7,"left_children":[1,3,5,7,9,11,13,15,17,19,21,23,25,27,29,31,33,35,37,39,41,43,45,47,49,51,53,55,57,59,61,-1,-1,-1,-1,-1,-1,-1,-1,-1,-1,-1,-1,-1,-1,-1,-1,-1,-1,-1,-1,-1,-1,-1,-1,-1,-1,-1,-1,-1,-1,-1,-1],"loss_changes":[1.17620224E2,5.6318398E1,4.478804E1,5.585369E1,2.8139E1,3.5793655E1,6.005756E1,2.7337128E1,5.1397514E1,2.6149048E1,1.5617943E1,4.266134E1,3.7993713E1,3.181165E1,4.1824913E1,3.380828E1,1.0200066E1,3.849401E1,8.325811E1,2.9330769E1,2.0637188E1,1.9348394E1,1.23164215E1,7.046444E0,2.712481E1,3.284397E1,3.8049057E1,1.0372817E1,1.60486E1,2.0113066E1,2.4259277E1,0E0,0E0,0E0,0E0,0E0,0E0,0E0,0E0,0E0,0E0,0E0,0E0,0E0,0E0,0E0,0E0,0E0,0E0,0E0,0E0,0E0,0E0,0E0,0E0,0E0,0E0,0E0,0E0,0E0,0E0,0E0,0E0],"parents":[2147483647,0,0,1,1,2,2,3,3,4,4,5,5,6,6,7,7,8,8,9,9,10,10,11,11,12,12,13,13,14,14,15,15,16,16,17,17,18,18,19,19,20,20,21,21,22,22,23,23,24,24,25,25,26,26,27,27,28,28,29,29,30,30],"right_children":[2,4,6,8,10,12,14,16,18,20,22,24,26,28,30,32,34,36,38,40,42,44,46,48,50,52,54,56,58,60,62,-1,-1,-1,-1,-1,-1,-1,-1,-1,-1,-1,-1,-1,-1,-1,-1,-1,-1,-1,-1,-1,-1,-1,-1,-1,-1,-1,-1,-1,-1,-1,-1],"split_conditions":[6.547081E-1,1.1452452E0,2.2147736E-1,-2.0637352E0,7.074186E-1,-1.5328668E0,-1.1928391E-1,-8.254686E-1,-1.9023097E-1,-5.314455E-1,1.4803985E-4,-8.1273794E-1,1.2102875E0,-7.856151E-1,4.8715517E-1,1.1374234E0,-1.7640743E0,-1.8561836E0,1.2257968E0,-1.352637E0,1.0943935E0,1.3067738E0,-1.4128972E0,-6.133283E-1,-3.0993295E-1,5.514662E-1,1.1821797E0,5.983553E-1,1.6466069E0,-3.6428842E-1,5.84772E-1,1.6058454E-2,-1.4188233E-2,2.043375E-2,-3.0032322E-2,-7.101264E-3,1.5987899E-3,-3.3502455E-3,3.5253614E-3,-2.0073662E-2,-5.3627137E-3,-4.3254006E-3,5.9475717E-3,-1.3487918E-2,2.108408E-2,1.0036153E-2,-2.5918782E-2,3.17201E-2,2.0286392E-3,-3.462669E-2,-4.3203915E-3,6.819708E-3,-4.2275335E-3,1.4222718E-2,-1.4188031E-3,1.1704198E-2,-3.7803815E-3,-1.2560504E-2,9.541441E-3,7.2029005E-3,-4.9381115E-4,5.494165E-3,1.7437758E-2],"split_indices":[20,22,18,47,47,45,22,45,45,27,54,47,20,30,27,28,34,17,45,20,45,45,23,54,47,47,5,25,26,47,47,0,0,0,0,0,0,0,0,0,0,0,0,0,0,0,0,0,0,0,0,0,0,0,0,0,0,0,0,0,0,0,0],"split_type":[0,0,0,0,0,0,0,0,0,0,0,0,0,0,0,0,0,0,0,0,0,0,0,0,0,0,0,0,0,0,0,0,0,0,0,0,0,0,0,0,0,0,0,0,0,0,0,0,0,0,0,0,0,0,0,0,0,0,0,0,0,0,0],"sum_hessian":[1.1887031E4,9.359866E3,2.5271653E3,8.585171E3,7.746951E2,1.1187488E3,1.4084165E3,1.21776886E2,8.463394E3,6.82608E2,9.208714E1,6.234841E1,1.0564004E3,2.710793E2,1.1373372E3,8.459581E1,3.7181076E1,4.044724E3,4.41867E3,2.527461E2,4.2986188E2,3.758653E1,5.450061E1,1.3839556E1,4.8508858E1,5.849932E2,4.714071E2,6.806276E1,2.0301656E2,8.397927E2,2.975445E2,1.8024103E1,6.657171E1,1.0084672E0,3.6172607E1,2.1385143E2,3.8308726E3,3.5401128E3,8.7855707E2,7.845262E1,1.7429347E2,3.2820648E2,1.0165538E2,3.037282E1,7.2137103E0,3.6019478E0,5.0898663E1,8.905911E0,4.933644E0,1.9154455E1,2.9354403E1,4.437205E2,1.4127275E2,3.9790915E2,7.3497955E1,3.6948444E1,3.1114311E1,1.896143E2,1.3402253E1,1.6926743E2,6.7052527E2,1.9184207E2,1.0570242E2],"tree_param":{"num_deleted":"0","num_feature":"56","num_nodes":"63","size_leaf_vector":"1"}},{"base_weights":[-3.4886648E-6,-5.080768E-2,1.865113E-1,-2.2365361E-2,-2.3351556E-1,1.318416E-1,5.0903887E-1,-3.94198E-1,-5.036057E-3,5.7818156E-1,-2.6051766E-1,6.50378E-1,1.0000452E-1,4.5283145E-1,1.536414E0,-5.956864E-1,1.08472645E-1,1.3639763E-1,-4.1749094E-2,8.342812E-1,-7.382592E-1,-2.8186208E-1,5.891945E-1,1.5046407E0,4.4006577E-1,1.4046767E-1,-2.8422943E-1,2.858248E-1,8.1791514E-1,-8.967166E-3,1.6840711E0,-1.6882082E-2,-5.756871E-3,6.228818E-3,-2.9391116E-2,7.456069E-3,-3.6529507E-4,-7.182755E-4,-1.6057217E-2,-1.2949271E-2,2.0443993E-2,-3.0254766E-2,8.1734415E-3,-5.0673997E-3,-1.9000148E-2,-1.0852474E-2,2.813193E-2,6.9363945E-5,3.2780994E-2,1.2440469E-2,-5.180238E-3,7.884021E-3,1.7646758E-3,-1.9759617E-3,-2.6148867E-2,1.002172E-2,-9.025727E-3,4.8310915E-3,2.229477E-2,3.5797913E-2,2.1312884E-3],"categories":[],"categories_nodes":[],"categories_segments":[],"categories_sizes":[],"default_left":[0,0,0,0,0,0,0,0,0,0,0,0,0,0,0,0,0,0,0,0,0,0,0,0,0,0,0,0,0,0,0,0,0,0,0,0,0,0,0,0,0,0,0,0,0,0,0,0,0,0,0,0,0,0,0,0,0,0,0,0,0],"id":8,"left_children":[1,3,5,7,9,11,13,15,17,19,21,23,25,27,29,31,33,35,37,39,41,43,45,47,49,51,53,55,57,-1,59,-1,-1,-1,-1,-1,-1,-1,-1,-1,-1,-1,-1,-1,-1,-1,-1,-1,-1,-1,-1,-1,-1,-1,-1,-1,-1,-1,-1,-1,-1],"loss_changes":[1.1254898E2,4.8504837E1,4.4767097E1,5.205313E1,2.7707993E1,3.5849976E1,2.0565308E1,3.6498337E1,4.0090714E1,1.43679695E1,2.224797E1,2.1914944E1,3.1925274E1,2.1136757E1,6.2296333E0,1.9406677E1,3.3696594E1,5.818474E1,2.7195107E1,1.0300783E1,6.990281E0,2.238218E1,2.8663994E1,4.920002E0,1.3167831E1,2.4565422E1,3.700727E1,3.862888E1,1.845929E1,0E0,2.7469025E0,0E0,0E0,0E0,0E0,0E0,0E0,0E0,0E0,0E0,0E0,0E0,0E0,0E0,0E0,0E0,0E0,0E0,0E0,0E0,0E0,0E0,0E0,0E0,0E0,0E0,0E0,0E0,0E0,0E0,0E0],"parents":[2147483647,0,0,1,1,2,2,3,3,4,4,5,5,6,6,7,7,8,8,9,9,10,10,11,11,12,12,13,13,14,14,15,15,16,16,17,17,18,18,19,19,20,20,21,21,22,22,23,23,24,24,25,25,26,26,27,27,28,28,30,30],"right_children":[2,4,6,8,10,12,14,16,18,20,22,24,26,28,30,32,34,36,38,40,42,44,46,48,50,52,54,56,58,-1,60,-1,-1,-1,-1,-1,-1,-1,-1,-1,-1,-1,-1,-1,-1,-1,-1,-1,-1,-1,-1,-1,-1,-1,-1,-1,-1,-1,-1,-1,-1],"split_conditions":[6.547081E-1,1.008439E-2,1.4134922E0,-1.8561836E0,-1.0853227E0,-9.488985E-1,2.7151494E0,2.2766213E0,-1.0140914E0,7.323867E-1,1.7696073E0,-5.414257E-1,1.1821797E0,6.1265785E-1,-1.4242163E0,-1.1529427E0,2.602538E-1,-3.756829E-1,2.044726E0,-1.130383E0,4.6609886E-2,1.892234E0,6.412651E-1,-1.2798544E0,1.220509E0,-2.4700618E-1,1.2789316E0,7.221349E-2,2.1446788E-1,-8.967166E-3,9.952221E-1,-1.6882082E-2,-5.756871E-3,6.228818E-3,-2.9391116E-2,7.456069E-3,-3.6529507E-4,-7.182755E-4,-1.6057217E-2,-1.2949271E-2,2.0443993E-2,-3.0254766E-2,8.1734415E-3,-5.0673997E-3,-1.9000148E-2,-1.0852474E-2,2.813193E-2,6.9363945E-5,3.2780994E-2,1.2440469E-2,-5.180238E-3,7.884021E-3,1.7646758E-3,-1.9759617E-3,-2.6148867E-2,1.002172E-2,-9.025727E-3,4.8310915E-3,2.229477E-2,3.5797913E-2,2.1312884E-3],"split_indices":[20,44,55,17,27,14,17,5,25,18,29,18,5,47,8,29,47,5,25,5,34,25,36,42,25,18,31,47,25,0,7,0,0,0,0,0,0,0,0,0,0,0,0,0,0,0,0,0,0,0,0,0,0,0,0,0,0,0,0,0,0],"split_type":[0,0,0,0,0,0,0,0,0,0,0,0,0,0,0,0,0,0,0,0,0,0,0,0,0,0,0,0,0,0,0,0,0,0,0,0,0,0,0,0,0,0,0,0,0,0,0,0,0,0,0,0,0,0,0,0,0,0,0,0,0],"sum_hessian":[1.1875602E4,9.333897E3,2.5417043E3,8.0775757E3,1.2563219E3,2.174523E3,3.671814E2,3.5872446E2,7.718851E3,3.9790333E1,1.2165315E3,1.2466429E2,2.0498586E3,3.4950104E2,1.7680347E1,2.559468E2,1.0277766E2,1.5901655E3,6.1286855E3,3.36168E1,6.173534E0,1.1873735E3,2.9158056E1,2.3412249E1,1.01252045E2,1.8551317E3,1.9472697E2,2.4102682E2,1.0847422E2,1.083237E0,1.659711E1,1.4068068E2,1.15266106E2,9.177595E1,1.1001713E1,6.28332E2,9.618336E2,6.0830947E3,4.5590874E1,3.5082936E0,3.0108505E1,3.4947307E0,2.6788032E0,1.1401334E3,4.724009E1,1.2368347E1,1.678971E1,2.0082736E0,2.1403975E1,8.042821E1,2.0823832E1,3.155853E2,1.5395464E3,1.6578012E2,2.8946848E1,1.8679625E2,5.423057E1,3.7490456E1,7.0983765E1,1.5427543E1,1.1695677E0],"tree_param":{"num_deleted":"0","num_feature":"56","num_nodes":"61","size_leaf_vector":"1"}},{"base_weights":[-4.7688615E-3,-4.0147714E-2,2.1267346E-1,-6.613905E-2,1.8297423E-1,3.3077058E-1,-1.9403727E-1,3.1984437E-2,-1.7011036E-1,-8.6657846E-1,2.1765797E-1,3.7237254E-1,-6.585739E-1,-9.800997E-1,-3.4025274E-2,-5.1001596E-1,4.873437E-2,-2.1713261E-1,1.2673244E-1,-1.3354466E0,1.5282968E-1,2.6289177E-1,-4.6382812E-1,2.273326E-1,6.4373875E-1,-1.0899335E0,8.2024807E-1,-1.230646E0,1.3828756E0,-5.018109E-1,1.9066091E-1,1.6008767E-3,-1.8416286E-2,2.6297132E-3,-1.3168041E-3,-1.0949728E-2,-3.7306072E-3,7.7194795E-3,3.996135E-4,-6.693685E-3,-3.292937E-2,3.0682191E-2,-2.4513425E-2,1.04316E-2,3.033572E-3,-1.5434325E-2,1.6419526E-2,1.2722273E-2,7.9132244E-4,1.8893834E-2,8.277166E-3,2.757167E-2,-2.5515646E-2,2.285953E-2,-6.47975E-3,-1.1315535E-2,-3.0242665E-2,3.169554E-3,3.2413054E-2,-1.5678575E-2,5.393141E-3,6.754587E-3,-8.810833E-3],"categories":[],"categories_nodes":[],"categories_segments":[],"categories_sizes":[],"default_left":[0,0,0,0,0,0,0,0,0,0,0,0,0,0,0,0,0,0,0,0,0,0,0,0,0,0,0,0,0,0,0,0,0,0,0,0,0,0,0,0,0,0,0,0,0,0,0,0,0,0,0,0,0,0,0,0,0,0,0,0,0,0,0],"id":9,"left_children":[1,3,5,7,9,11,13,15,17,19,21,23,25,27,29,31,33,35,37,39,41,43,45,47,49,51,53,55,57,59,61,-1,-1,-1,-1,-1,-1,-1,-1,-1,-1,-1,-1,-1,-1,-1,-1,-1,-1,-1,-1,-1,-1,-1,-1,-1,-1,-1,-1,-1,-1,-1,-1],"loss_changes":[9.139851E1,5.9270226E1,7.9920166E1,9.338328E1,3.900785E1,5.329135E1,4.7103672E1,4.2781734E1,6.206021E1,1.6604925E1,3.1967827E1,4.855841E1,3.430051E1,3.9206078E1,3.2931667E1,3.4317474E1,4.33323E1,3.8686417E1,1.6828205E1,6.7965736E0,2.4172552E1,2.7810478E1,2.6213278E1,6.1991356E1,2.9390686E1,2.0555763E1,4.9481153E0,9.962677E0,1.6482725E0,2.2333555E1,1.9807201E1,0E0,0E0,0E0,0E0,0E0,0E0,0E0,0E0,0E0,0E0,0E0,0E0,0E0,0E0,0E0,0E0,0E0,0E0,0E0,0E0,0E0,0E0,0E0,0E0,0E0,0E0,0E0,0E0,0E0,0E0,0E0,0E0],"parents":[2147483647,0,0,1,1,2,2,3,3,4,4,5,5,6,6,7,7,8,8,9,9,10,10,11,11,12,12,13,13,14,14,15,15,16,16,17,17,18,18,19,19,20,20,21,21,22,22,23,23,24,24,25,25,26,26,27,27,28,28,29,29,30,30],"right_children":[2,4,6,8,10,12,14,16,18,20,22,24,26,28,30,32,34,36,38,40,42,44,46,48,50,52,54,56,58,60,62,-1,-1,-1,-1,-1,-1,-1,-1,-1,-1,-1,-1,-1,-1,-1,-1,-1,-1,-1,-1,-1,-1,-1,-1,-1,-1,-1,-1,-1,-1,-1,-1],"split_conditions":[9.934587E-1,1.2867723E0,1.1952173E0,-1.9023097E-1,-7.759707E-1,2.5929239E0,1.2867723E0,-1.907757E0,1.146636E0,2.6290214E-1,1.8505332E0,6.0516834E-1,1.0610944E0,1.6095146E0,1.4803985E-4,-5.3000763E-2,-1.843041E-1,-8.366476E-1,1.6986951E-1,-6.5362716E-1,-9.9603736E-1,-4.697565E-1,1.6058383E0,1.7335271E-2,1.5897155E-1,-9.0114003E-1,9.41688E-1,-5.348778E-1,-7.1294355E-1,2.1349558E-1,1.6418465E0,1.6008767E-3,-1.8416286E-2,2.6297132E-3,-1.3168041E-3,-1.0949728E-2,-3.7306072E-3,7.7194795E-3,3.996135E-4,-6.693685E-3,-3.292937E-2,3.0682191E-2,-2.4513425E-2,1.04316E-2,3.033572E-3,-1.5434325E-2,1.6419526E-2,1.2722273E-2,7.9132244E-4,1.8893834E-2,8.277166E-3,2.757167E-2,-2.5515646E-2,2.285953E-2,-6.47975E-3,-1.1315535E-2,-3.0242665E-2,3.169554E-3,3.2413054E-2,-1.5678575E-2,5.393141E-3,6.754587E-3,-8.810833E-3],"split_indices":[20,45,45,45,19,19,45,47,29,25,25,45,45,47,54,5,47,19,33,42,19,5,45,19,47,24,33,36,27,27,45,0,0,0,0,0,0,0,0,0,0,0,0,0,0,0,0,0,0,0,0,0,0,0,0,0,0,0,0,0,0,0,0],"split_type":[0,0,0,0,0,0,0,0,0,0,0,0,0,0,0,0,0,0,0,0,0,0,0,0,0,0,0,0,0,0,0,0,0,0,0,0,0,0,0,0,0,0,0,0,0,0,0,0,0,0,0,0,0,0,0,0,0,0,0,0,0,0,0],"sum_hessian":[1.1878843E4,1.0217263E4,1.6615798E3,9.151871E3,1.065392E3,1.2878204E3,3.7375943E2,4.708701E3,4.44317E3,3.3313652E1,1.0320784E3,1.2364513E3,5.1369152E1,6.2348057E1,3.1141138E2,1.4027223E2,4.5684287E3,3.835815E3,6.0735504E2,2.260613E1,1.070752E1,9.684139E2,6.3664482E1,8.0697614E2,4.2947516E2,3.9972492E1,1.1396659E1,5.6804295E1,5.5437627E0,1.0064338E2,2.1076799E2,5.7904663E1,8.236757E1,2.6525103E3,1.9159185E3,3.2377264E2,3.5120422E3,1.7638846E2,4.3096658E2,5.852113E0,1.6754019E1,5.291984E0,5.415535E0,2.9005032E2,6.783635E2,5.1679466E1,1.1985019E1,2.532484E2,5.537277E2,1.8464008E2,2.4483508E2,2.3493767E0,3.7623116E1,8.890281E0,2.5063784E0,1.7791342E1,3.901295E1,1.1725236E0,4.371239E0,7.368235E1,2.6961027E1,1.7131664E2,3.9451355E1],"tree_param":{"num_deleted":"0","num_feature":"56","num_nodes":"63","size_leaf_vector":"1"}},{"base_weights":[-9.110704E-3,-5.8498695E-2,1.7118704E-1,1.2182576E-2,-1.4347023E-1,1.2714657E-1,4.3806112E-1,1.4603128E-1,-7.923754E-2,-5.696301E-1,-1.0866353E-1,1.9525255E-1,-1.0412708E-1,-1.1230488E0,4.8817113E-1,6.576999E-2,4.4806802E-1,-3.7252927E-1,-9.857664E-3,-6.959456E-1,1.3748837E-1,-1.422131E-1,2.4222958E-1,1.3478318E-1,7.0539653E-1,3.10949E-1,-2.6645023E-1,-1.5106741E0,1.5824407E-2,4.3234983E-1,1.4592512E0,4.9750973E-3,-1.3259322E-3,-2.7720118E-3,1.2366633E-2,-2.8086456E-3,-1.2125482E-2,2.8168713E-3,-2.9037355E-3,-8.368196E-3,-2.0935187E-2,-2.4300797E-2,1.5895447E-2,-2.643547E-3,-2.314314E-2,-4.834576E-3,7.577733E-3,3.2002248E-3,-1.6729968E-2,1.0447282E-2,2.1958191E-2,-1.7832717E-2,1.0083839E-2,-1.663152E-2,-1.349921E-4,-3.4774307E-2,2.0741133E-3,1.5969506E-2,4.856204E-3,2.398367E-3,3.183508E-2],"categories":[],"categories_nodes":[],"categories_segments":[],"categories_sizes":[],"default_left":[0,0,0,0,0,0,0,0,0,0,0,0,0,0,0,0,0,0,0,0,0,0,0,0,0,0,0,0,0,0,0,0,0,0,0,0,0,0,0,0,0,0,0,0,0,0,0,0,0,0,0,0,0,0,0,0,0,0,0,0,0],"id":10,"left_children":[1,3,5,7,9,11,13,15,17,19,21,23,25,27,29,31,33,35,37,39,41,43,45,47,49,51,53,55,-1,57,59,-1,-1,-1,-1,-1,-1,-1,-1,-1,-1,-1,-1,-1,-1,-1,-1,-1,-1,-1,-1,-1,-1,-1,-1,-1,-1,-1,-1,-1,-1],"loss_changes":[1.0531009E2,5.575701E1,2.983294E1,6.203555E1,6.2469627E1,3.4424007E1,2.8694672E1,4.9845703E1,6.1293938E1,2.8506516E1,4.5929543E1,5.1966232E1,3.360519E1,9.723381E0,1.830413E1,3.9325996E1,4.321422E1,3.1177177E1,4.9724022E1,2.5853653E1,4.4564873E1,3.6097755E1,2.2616962E1,3.7135628E1,1.2258316E1,3.306177E1,5.2565742E1,3.8254929E0,0E0,2.2827553E1,3.104145E0,0E0,0E0,0E0,0E0,0E0,0E0,0E0,0E0,0E0,0E0,0E0,0E0,0E0,0E0,0E0,0E0,0E0,0E0,0E0,0E0,0E0,0E0,0E0,0E0,0E0,0E0,0E0,0E0,0E0,0E0],"parents":[2147483647,0,0,1,1,2,2,3,3,4,4,5,5,6,6,7,7,8,8,9,9,10,10,11,11,12,12,13,13,14,14,15,15,16,16,17,17,18,18,19,19,20,20,21,21,22,22,23,23,24,24,25,25,26,26,27,27,29,29,30,30],"right_children":[2,4,6,8,10,12,14,16,18,20,22,24,26,28,30,32,34,36,38,40,42,44,46,48,50,52,54,56,-1,58,60,-1,-1,-1,-1,-1,-1,-1,-1,-1,-1,-1,-1,-1,-1,-1,-1,-1,-1,-1,-1,-1,-1,-1,-1,-1,-1,-1,-1,-1,-1],"split_conditions":[6.547081E-1,7.7775614E-3,1.4134922E0,1.4803985E-4,-1.1905968E0,1.1952173E0,-9.430787E-1,4.5653537E-1,-1.0798285E0,1.157028E0,1.0379546E0,1.0610944E0,9.2302877E-1,1.0135106E0,2.7151494E0,-4.4688183E-1,-8.547108E-1,-7.6873994E-1,-6.2329304E-1,3.7443694E-1,2.9309967E-1,2.2218661E0,-8.1273794E-1,2.5929239E0,9.164589E-1,4.1141808E-1,1.3719809E0,1.240209E0,1.5824407E-2,2.7016927E-2,-1.490318E0,4.9750973E-3,-1.3259322E-3,-2.7720118E-3,1.2366633E-2,-2.8086456E-3,-1.2125482E-2,2.8168713E-3,-2.9037355E-3,-8.368196E-3,-2.0935187E-2,-2.4300797E-2,1.5895447E-2,-2.643547E-3,-2.314314E-2,-4.834576E-3,7.577733E-3,3.2002248E-3,-1.6729968E-2,1.0447282E-2,2.1958191E-2,-1.7832717E-2,1.0083839E-2,-1.663152E-2,-1.349921E-4,-3.4774307E-2,2.0741133E-3,1.5969506E-2,4.856204E-3,2.398367E-3,3.183508E-2],"split_indices":[20,18,55,54,20,45,19,47,17,45,27,45,20,46,17,36,20,20,45,45,5,19,47,19,47,19,45,20,0,18,31,0,0,0,0,0,0,0,0,0,0,0,0,0,0,0,0,0,0,0,0,0,0,0,0,0,0,0,0,0,0],"split_type":[0,0,0,0,0,0,0,0,0,0,0,0,0,0,0,0,0,0,0,0,0,0,0,0,0,0,0,0,0,0,0,0,0,0,0,0,0,0,0,0,0,0,0,0,0,0,0,0,0,0,0,0,0,0,0,0,0,0,0,0,0],"sum_hessian":[1.1824432E4,9.282423E3,2.5420085E3,5.067782E3,4.214641E3,2.183205E3,3.5880353E2,2.0563992E3,3.011383E3,3.170792E2,3.8975618E3,1.6866672E3,4.9653784E2,1.0493109E1,3.4831042E2,1.6256321E3,4.307672E2,5.7524835E2,2.4361348E3,2.6903598E2,4.804323E1,3.557972E3,3.395899E2,1.509057E3,1.7761028E2,1.3933333E2,3.572045E2,8.9014635E0,1.5916454E0,3.3074332E2,1.7567127E1,6.810792E2,9.445528E2,9.693823E1,3.3382898E2,2.8944485E2,2.858035E2,1.1525856E3,1.2835492E3,1.5142963E2,1.1760634E2,1.5434423E1,3.2608807E1,3.5242544E3,3.371754E1,7.4607056E1,2.6498282E2,1.4716671E3,3.738984E1,1.2271703E2,5.4893246E1,1.8789421E1,1.2054391E2,1.11774254E2,2.4543025E2,7.7322206E0,1.1692426E0,1.11722015E2,2.1902129E2,1.752993E0,1.5814134E1],"tree_param":{"num_deleted":"0","num_feature":"56","num_nodes":"61","size_leaf_vector":"1"}},{"base_weights":[8.651872E-3,-3.916984E-2,1.8393041E-1,-6.430728E-1,-3.0921739E-2,3.5543978E-1,1.0467841E-1,-3.4963548E-1,-1.3750412E0,5.5809855E-2,-9.540805E-2,4.4535068E-1,-2.2625507E-1,3.9242864E-2,3.9773533E-1,4.4507852E-1,-8.424692E-1,-1.4837365E0,-2.4526075E-1,-3.8934544E-2,1.7629641E-1,-1.5532924E-1,1.5231702E-1,6.627162E-1,3.016237E-1,1.0400922E0,-3.7899104E-1,6.996082E-2,-4.8028025E-1,4.6351174E-1,-1.079755E0,2.2005193E-2,-7.578426E-3,-2.6723916E-2,-3.8792782E-3,-3.108212E-2,4.305597E-3,2.055651E-2,-1.8780377E-2,5.612876E-3,-2.5602018E-3,5.7116994E-3,-4.0055593E-3,-4.101227E-3,2.8621708E-3,4.148747E-3,-1.5025157E-2,2.8758483E-2,1.1677814E-2,-8.326414E-3,7.082508E-3,2.8936464E-2,-1.0938072E-2,-1.18282605E-2,1.2841376E-2,4.3914365E-3,-5.45192E-4,-1.35552725E-2,2.5791392E-2,3.041294E-3,1.3485815E-2,-3.1470504E-2,2.4741951E-2],"categories":[],"categories_nodes":[],"categories_segments":[],"categories_sizes":[],"default_left":[0,0,0,0,0,0,0,0,0,0,0,0,0,0,0,0,0,0,0,0,0,0,0,0,0,0,0,0,0,0,0,0,0,0,0,0,0,0,0,0,0,0,0,0,0,0,0,0,0,0,0,0,0,0,0,0,0,0,0,0,0,0,0],"id":11,"left_children":[1,3,5,7,9,11,13,15,17,19,21,23,25,27,29,31,33,35,37,39,41,43,45,47,49,51,53,55,57,59,61,-1,-1,-1,-1,-1,-1,-1,-1,-1,-1,-1,-1,-1,-1,-1,-1,-1,-1,-1,-1,-1,-1,-1,-1,-1,-1,-1,-1,-1,-1,-1,-1],"loss_changes":[1.00035484E2,4.668442E1,3.473416E1,2.6643951E1,5.1746765E1,4.2363396E1,3.356344E1,3.6207542E1,4.0321655E0,4.504905E1,7.879138E1,2.1676117E1,2.1446272E1,2.2895283E1,3.155196E1,1.9675842E1,1.7932167E1,4.215233E0,4.798178E0,6.293701E1,7.154748E1,6.3453857E1,5.1656734E1,1.614051E1,1.6104824E1,8.525329E0,2.1605408E1,1.9692286E1,2.8870749E1,2.002427E1,1.7869207E1,0E0,0E0,0E0,0E0,0E0,0E0,0E0,0E0,0E0,0E0,0E0,0E0,0E0,0E0,0E0,0E0,0E0,0E0,0E0,0E0,0E0,0E0,0E0,0E0,0E0,0E0,0E0,0E0,0E0,0E0,0E0,0E0],"parents":[2147483647,0,0,1,1,2,2,3,3,4,4,5,5,6,6,7,7,8,8,9,9,10,10,11,11,12,12,13,13,14,14,15,15,16,16,17,17,18,18,19,19,20,20,21,21,22,22,23,23,24,24,25,25,26,26,27,27,28,28,29,29,30,30],"right_children":[2,4,6,8,10,12,14,16,18,20,22,24,26,28,30,32,34,36,38,40,42,44,46,48,50,52,54,56,58,60,62,-1,-1,-1,-1,-1,-1,-1,-1,-1,-1,-1,-1,-1,-1,-1,-1,-1,-1,-1,-1,-1,-1,-1,-1,-1,-1,-1,-1,-1,-1,-1,-1],"split_conditions":[6.547081E-1,-2.0637352E0,-6.573683E-2,-8.254686E-1,-3.178596E-1,1.3786168E0,1.4561229E0,-5.9581533E-2,2.0655713E0,-9.4155854E-1,1.2257968E0,-4.0770236E-1,-4.970614E-1,1.0912791E0,2.3861694E0,1.1374234E0,-2.254958E0,1.6911724E0,-1.2522773E0,-1.0065749E0,1.1758511E-1,1.1212335E0,1.8505332E0,-1.0348176E0,-1.5328668E0,-3.7081562E-2,8.157277E-2,-4.5886673E-2,1.5369018E0,1.2198417E-1,1.6956291E0,2.2005193E-2,-7.578426E-3,-2.6723916E-2,-3.8792782E-3,-3.108212E-2,4.305597E-3,2.055651E-2,-1.8780377E-2,5.612876E-3,-2.5602018E-3,5.7116994E-3,-4.0055593E-3,-4.101227E-3,2.8621708E-3,4.148747E-3,-1.5025157E-2,2.8758483E-2,1.1677814E-2,-8.326414E-3,7.082508E-3,2.8936464E-2,-1.0938072E-2,-1.18282605E-2,1.2841376E-2,4.3914365E-3,-5.45192E-4,-1.35552725E-2,2.5791392E-2,3.041294E-3,1.3485815E-2,-3.1470504E-2,2.4741951E-2],"split_indices":[20,47,26,45,45,54,17,5,23,45,45,27,47,5,5,28,47,30,20,20,20,29,25,44,45,27,44,36,25,27,25,0,0,0,0,0,0,0,0,0,0,0,0,0,0,0,0,0,0,0,0,0,0,0,0,0,0,0,0,0,0,0,0],"split_type":[0,0,0,0,0,0,0,0,0,0,0,0,0,0,0,0,0,0,0,0,0,0,0,0,0,0,0,0,0,0,0,0,0,0,0,0,0,0,0,0,0,0,0,0,0,0,0,0,0,0,0,0,0,0,0,0,0,0,0,0,0,0,0],"sum_hessian":[1.1932528E4,9.375392E3,2.5571365E3,1.2528665E2,9.2501045E3,8.070702E2,1.7500663E3,9.048855E1,3.4798103E1,3.9447302E3,5.3053745E3,6.9922705E2,1.0784314E2,1.4315541E3,3.1851224E2,3.467333E1,5.581522E1,3.1458235E1,3.3398674E0,2.2086438E3,1.7360864E3,4.272331E3,1.0330435E3,2.7687863E2,4.223484E2,1.0981856E1,9.686128E1,1.3524526E3,7.9101425E1,3.0559378E2,1.2918446E1,1.9128529E1,1.5544799E1,3.1087189E1,2.4728031E1,3.0289022E1,1.1692128E0,1.0082104E0,2.331657E0,4.8095618E2,1.7276876E3,1.3457635E3,3.9032288E2,3.6623455E3,6.099856E2,9.743746E2,5.8668873E1,2.3963943E1,2.529147E2,2.8308525E1,3.940399E2,8.811805E0,2.170051E0,8.05288E1,1.633248E1,5.3219995E2,8.2025275E2,7.171623E1,7.3851905E0,1.2403749E2,1.815563E2,1.09134035E1,2.0050426E0],"tree_param":{"num_deleted":"0","num_feature":"56","num_nodes":"63","size_leaf_vector":"1"}},{"base_weights":[4.60991E-3,-2.0173693E-1,3.240509E-2,-1.2045177E-1,-6.339281E-1,1.0924039E-1,-3.070687E-2,-6.528334E-2,-7.950743E-1,-1.1176257E0,-4.5385286E-1,8.341628E-2,5.6484807E-1,-7.3818296E-2,1.6977324E-1,2.7888846E-2,-4.065479E-1,-9.033862E-1,9.6055573E-1,-1.5103179E0,-5.388877E-1,3.082141E-2,-5.300055E-1,1.9267929E-1,-6.3021116E-2,7.0228076E-1,-5.0036865E-1,7.107827E-2,-1.0953626E-1,-9.8569535E-2,3.8417977E-1,-9.721755E-3,2.5317795E-3,-6.499269E-4,-1.4646669E-2,-2.6709553E-2,-1.0822267E-2,3.0997269E-2,-1.1022947E-2,-3.2690402E-2,-6.5748245E-3,4.498496E-3,-3.307962E-2,-2.5663935E-3,-1.7814828E-2,1.628201E-2,3.212069E-3,3.5159304E-3,-2.6475438E-3,2.374919E-2,9.631779E-3,4.884535E-3,-2.2840483E-2,9.715821E-4,1.6703414E-2,9.146241E-4,-2.8711308E-3,-3.8615796E-3,5.258559E-3,-3.0717E-3,9.590696E-3],"categories":[],"categories_nodes":[],"categories_segments":[],"categories_sizes":[],"default_left":[0,0,0,0,0,0,0,0,0,0,0,0,0,0,0,0,0,0,0,0,0,0,0,0,0,0,0,0,0,0,0,0,0,0,0,0,0,0,0,0,0,0,0,0,0,0,0,0,0,0,0,0,0,0,0,0,0,0,0,0,0],"id":12,"left_children":[1,3,5,7,9,11,13,15,17,19,21,23,25,27,29,31,33,35,37,39,41,-1,43,45,47,49,51,53,55,57,59,-1,-1,-1,-1,-1,-1,-1,-1,-1,-1,-1,-1,-1,-1,-1,-1,-1,-1,-1,-1,-1,-1,-1,-1,-1,-1,-1,-1,-1,-1],"loss_changes":[6.811953E1,4.945527E1,5.0759575E1,4.416149E1,1.891314E1,5.5492195E1,4.968731E1,3.496341E1,1.7927444E1,1.2777412E1,2.5755394E1,7.150782E1,3.7394356E1,2.4492224E1,5.8578804E1,4.3913754E1,2.8712894E1,1.2585396E1,5.9302053E0,4.609894E0,2.2286667E1,0E0,2.2905762E1,5.08823E1,3.166197E1,2.3470078E1,1.4372908E1,1.6053764E1,2.005655E1,1.5517292E1,2.908667E1,0E0,0E0,0E0,0E0,0E0,0E0,0E0,0E0,0E0,0E0,0E0,0E0,0E0,0E0,0E0,0E0,0E0,0E0,0E0,0E0,0E0,0E0,0E0,0E0,0E0,0E0,0E0,0E0,0E0,0E0],"parents":[2147483647,0,0,1,1,2,2,3,3,4,4,5,5,6,6,7,7,8,8,9,9,10,10,11,11,12,12,13,13,14,14,15,15,16,16,17,17,18,18,19,19,20,20,22,22,23,23,24,24,25,25,26,26,27,27,28,28,29,29,30,30],"right_children":[2,4,6,8,10,12,14,16,18,20,22,24,26,28,30,32,34,36,38,40,42,-1,44,46,48,50,52,54,56,58,60,-1,-1,-1,-1,-1,-1,-1,-1,-1,-1,-1,-1,-1,-1,-1,-1,-1,-1,-1,-1,-1,-1,-1,-1,-1,-1,-1,-1,-1,-1],"split_conditions":[-9.221212E-1,2.3723897E-1,7.7775614E-3,1.9760991E0,-7.497315E-1,1.3179926E0,5.0150025E-1,-1.9023097E-1,3.55221E-1,-9.478164E-2,-1.4397762E0,6.136244E-1,9.5049304E-1,-8.580208E-1,5.6700224E-1,-1.7318826E0,1.4803985E-4,-1.1888684E0,-2.3274587E-1,1.0943935E0,-1.0136408E0,3.082141E-2,1.3764863E-1,-1.6929133E0,-5.197655E-1,-4.697565E-1,-2.719816E-1,2.0826511E0,-7.7514696E-1,7.086502E-1,2.6896396E-1,-9.721755E-3,2.5317795E-3,-6.499269E-4,-1.4646669E-2,-2.6709553E-2,-1.0822267E-2,3.0997269E-2,-1.1022947E-2,-3.2690402E-2,-6.5748245E-3,4.498496E-3,-3.307962E-2,-2.5663935E-3,-1.7814828E-2,1.628201E-2,3.212069E-3,3.5159304E-3,-2.6475438E-3,2.374919E-2,9.631779E-3,4.884535E-3,-2.2840483E-2,9.715821E-4,1.6703414E-2,9.146241E-4,-2.8711308E-3,-3.8615796E-3,5.258559E-3,-3.0717E-3,9.590696E-3],"split_indices":[19,26,18,27,30,45,27,45,40,35,29,54,29,6,26,45,54,30,31,45,30,0,18,25,19,5,16,18,29,52,19,0,0,0,0,0,0,0,0,0,0,0,0,0,0,0,0,0,0,0,0,0,0,0,0,0,0,0,0,0,0],"split_type":[0,0,0,0,0,0,0,0,0,0,0,0,0,0,0,0,0,0,0,0,0,0,0,0,0,0,0,0,0,0,0,0,0,0,0,0,0,0,0,0,0,0,0,0,0,0,0,0,0,0,0,0,0,0,0,0,0,0,0,0,0],"sum_hessian":[1.1874793E4,1.4089231E3,1.046587E4,1.1869618E3,2.219613E2,4.71946E3,5.7464106E3,1.0982474E3,8.8714325E1,5.8803547E1,1.6315776E2,4.467427E3,2.520332E2,4.7299165E3,1.0164939E3,8.6343134E2,2.3481609E2,8.401644E1,4.6978784E0,3.4073742E1,2.4729805E1,5.291922E0,1.5786584E2,2.5582756E3,1.909151E3,2.2353389E2,2.849931E1,9.351829E2,3.7947336E3,4.5170187E2,5.6479205E2,1.3846355E2,7.249678E2,1.09822655E2,1.2499343E2,3.7090874E1,4.692557E1,3.3620183E0,1.33586E0,3.0485865E1,3.5878775E0,1.5150417E1,9.579387E0,7.533486E1,8.2530975E1,1.2437211E2,2.4339036E3,4.2931882E2,1.4798322E3,6.851871E1,1.5501518E2,1.34782E1,1.5021109E1,9.0946674E2,2.5716225E1,6.819576E2,3.1127761E3,3.58454E2,9.324788E1,8.497212E1,4.798199E2],"tree_param":{"num_deleted":"0","num_feature":"56","num_nodes":"61","size_leaf_vector":"1"}},{"base_weights":[-4.0709056E-4,-4.9917854E-2,1.8080857E-1,-1.9744076E-2,-2.75163E-1,3.2897896E-1,9.349784E-2,5.5066723E-2,-9.0785846E-2,-2.3367679E-1,-1.0523347E0,-2.864223E-1,3.889319E-1,-3.2957053E-1,1.9754891E-1,7.72478E-2,-3.0340785E-1,-1.5531193E-1,2.0127328E-1,-1.5208495E-1,-5.509007E-1,-1.5764562E0,-2.9650077E-1,-1.1352478E0,3.1691092E-1,1.0437784E0,3.1353915E-1,3.5476196E-1,-4.730539E-1,2.1884212E-1,-9.1189724E-1,4.2879777E-3,3.240852E-4,-1.7884735E-2,9.587679E-4,-4.621895E-3,4.5179817E-4,8.474915E-3,-4.387517E-4,-1.1165348E-2,-1.7494814E-3,-7.313357E-3,-2.0754294E-2,-1.01381345E-2,-3.42257E-2,8.102889E-3,-1.8749313E-2,-2.7442101E-2,1.4286847E-2,1.0932912E-2,-2.5459845E-2,2.640997E-2,-9.952172E-3,-5.052199E-3,7.9624625E-3,-8.909186E-4,2.1640033E-2,-1.0664467E-2,1.6596437E-2,4.6061757E-3,-3.3715323E-2,9.987875E-3,-2.5083624E-2],"categories":[],"categories_nodes":[],"categories_segments":[],"categories_sizes":[],"default_left":[0,0,0,0,0,0,0,0,0,0,0,0,0,0,0,0,0,0,0,0,0,0,0,0,0,0,0,0,0,0,0,0,0,0,0,0,0,0,0,0,0,0,0,0,0,0,0,0,0,0,0,0,0,0,0,0,0,0,0,0,0,0,0],"id":13,"left_children":[1,3,5,7,9,11,13,15,17,19,21,23,25,27,29,31,33,35,37,39,41,43,45,47,49,51,53,55,57,59,61,-1,-1,-1,-1,-1,-1,-1,-1,-1,-1,-1,-1,-1,-1,-1,-1,-1,-1,-1,-1,-1,-1,-1,-1,-1,-1,-1,-1,-1,-1,-1,-1],"loss_changes":[1.07240906E2,6.379864E1,3.315078E1,4.400981E1,3.550856E1,3.5183876E1,7.117102E1,3.2095715E1,8.0073074E1,2.7197617E1,2.168177E1,4.3871452E1,4.2459167E1,3.1512592E1,3.084085E1,3.180516E1,4.8875587E1,4.6912468E1,3.8196735E1,2.1990044E1,1.9031235E1,3.8603058E0,1.1230189E1,1.6540257E1,1.9121193E1,3.863797E1,3.738507E1,1.6281689E1,2.1163605E1,2.8199528E1,1.2518721E1,0E0,0E0,0E0,0E0,0E0,0E0,0E0,0E0,0E0,0E0,0E0,0E0,0E0,0E0,0E0,0E0,0E0,0E0,0E0,0E0,0E0,0E0,0E0,0E0,0E0,0E0,0E0,0E0,0E0,0E0,0E0,0E0],"parents":[2147483647,0,0,1,1,2,2,3,3,4,4,5,5,6,6,7,7,8,8,9,9,10,10,11,11,12,12,13,13,14,14,15,15,16,16,17,17,18,18,19,19,20,20,21,21,22,22,23,23,24,24,25,25,26,26,27,27,28,28,29,29,30,30],"right_children":[2,4,6,8,10,12,14,16,18,20,22,24,26,28,30,32,34,36,38,40,42,44,46,48,50,52,54,56,58,60,62,-1,-1,-1,-1,-1,-1,-1,-1,-1,-1,-1,-1,-1,-1,-1,-1,-1,-1,-1,-1,-1,-1,-1,-1,-1,-1,-1,-1,-1,-1,-1,-1],"split_conditions":[6.547081E-1,9.117317E-1,8.714782E-2,-1.9023097E-1,1.892234E0,-1.406244E0,-2.023392E-1,1.6445414E0,1.2720506E0,9.804012E-1,-9.4024315E-2,-8.81155E-1,-1.0468729E0,-9.648723E-1,2.228528E0,-1.0140914E0,-1.1011326E0,1.930949E-1,6.243928E-1,-8.015406E-1,3.2190555E-1,-9.7257036E-1,2.8464365E-1,1.7284612E-1,1.1055942E0,2.0139225E-1,-7.955779E-1,-1.1160301E0,1.7831424E0,2.9569516E0,1.441622E-3,4.2879777E-3,3.240852E-4,-1.7884735E-2,9.587679E-4,-4.621895E-3,4.5179817E-4,8.474915E-3,-4.387517E-4,-1.1165348E-2,-1.7494814E-3,-7.313357E-3,-2.0754294E-2,-1.01381345E-2,-3.42257E-2,8.102889E-3,-1.8749313E-2,-2.7442101E-2,1.4286847E-2,1.0932912E-2,-2.5459845E-2,2.640997E-2,-9.952172E-3,-5.052199E-3,7.9624625E-3,-8.909186E-4,2.1640033E-2,-1.0664467E-2,1.6596437E-2,4.6061757E-3,-3.3715323E-2,9.987875E-3,-2.5083624E-2],"split_indices":[20,22,18,45,25,45,22,27,45,30,5,25,45,30,25,25,18,26,25,27,47,30,47,47,54,26,45,30,26,5,52,0,0,0,0,0,0,0,0,0,0,0,0,0,0,0,0,0,0,0,0,0,0,0,0,0,0,0,0,0,0,0,0],"split_type":[0,0,0,0,0,0,0,0,0,0,0,0,0,0,0,0,0,0,0,0,0,0,0,0,0,0,0,0,0,0,0,0,0,0,0,0,0,0,0,0,0,0,0,0,0,0,0,0,0,0,0,0,0,0,0,0,0,0,0,0,0,0,0],"sum_hessian":[1.195067E4,9.386787E3,2.5638826E3,8.278843E3,1.1079438E3,9.495996E2,1.6142831E3,4.0325627E3,4.2462803E3,1.0530326E3,5.491128E1,8.396307E1,8.6563654E2,3.1822455E2,1.2960585E3,3.7983213E3,2.342415E2,3.4782756E3,7.680045E2,8.3877435E2,2.1425824E2,3.1784845E1,2.3126434E1,3.4518127E1,4.9444946E1,8.8045586E1,7.77591E2,5.4901886E1,2.6332266E2,1.2724397E3,2.3618746E1,1.1691013E3,2.62922E3,8.677472E1,1.4746678E2,2.439006E3,1.0392697E3,3.8418848E2,3.8381604E2,1.1406341E2,7.24711E2,1.5647182E2,5.7786415E1,4.0911107E0,2.7693735E1,1.1216252E1,1.1910182E1,3.0828417E1,3.68971E0,4.3775707E1,5.66924E0,7.4766335E1,1.3279252E1,1.0081507E2,6.767759E2,3.6047768E1,1.8854118E1,2.5226337E2,1.10593E1,1.2656987E3,6.74104E0,4.5205984E0,1.9098146E1],"tree_param":{"num_deleted":"0","num_feature":"56","num_nodes":"63","size_leaf_vector":"1"}},{"base_weights":[2.6598652E-3,-4.2886067E-2,1.695432E-1,2.9376825E-2,-1.2995744E-1,2.9350564E-1,7.033355E-2,4.6208105E-3,5.1430213E-1,-5.2970743E-1,-9.732184E-2,-4.8733646E-1,3.388706E-1,-2.9679763E-1,1.5890214E-1,1.3778725E-1,-8.650767E-2,-8.472262E-1,6.492565E-1,-6.7469317E-1,2.7357537E-1,-1.2745105E-1,2.1642576E-1,9.5818543E-1,-9.359681E-1,8.2007855E-1,2.72967E-1,1.3675228E-1,-4.4881633E-1,5.7470627E-2,4.464476E-1,8.089097E-3,1.2709652E-3,8.4673264E-4,-5.913718E-3,1.4998884E-3,-2.7749814E-2,2.0609025E-2,6.9771186E-3,-1.9000242E-2,-7.2473767E-3,-2.3615764E-2,1.9002693E-2,-2.3391141E-4,-3.959222E-3,-4.073973E-3,6.680998E-3,2.5676407E-2,-2.4527838E-2,-2.4025947E-2,1.8355248E-2,2.131406E-3,2.1551961E-2,2.4619684E-4,8.450476E-3,1.135943E-2,-5.571672E-3,-1.49621945E-2,-4.4024778E-3,7.96183E-3,-5.5852823E-4,5.1176846E-3,1.5664883E-2],"categories":[],"categories_nodes":[],"categories_segments":[],"categories_sizes":[],"default_left":[0,0,0,0,0,0,0,0,0,0,0,0,0,0,0,0,0,0,0,0,0,0,0,0,0,0,0,0,0,0,0,0,0,0,0,0,0,0,0,0,0,0,0,0,0,0,0,0,0,0,0,0,0,0,0,0,0,0,0,0,0,0,0],"id":14,"left_children":[1,3,5,7,9,11,13,15,17,19,21,23,25,27,29,31,33,35,37,39,41,43,45,47,49,51,53,55,57,59,61,-1,-1,-1,-1,-1,-1,-1,-1,-1,-1,-1,-1,-1,-1,-1,-1,-1,-1,-1,-1,-1,-1,-1,-1,-1,-1,-1,-1,-1,-1,-1,-1],"loss_changes":[9.035203E1,5.8761795E1,3.1323326E1,6.1270367E1,5.520469E1,4.028756E1,4.6122063E1,5.8954205E1,4.6100395E1,3.7390274E1,3.7054928E1,4.1494797E1,3.3743256E1,1.8235355E1,3.328882E1,3.9049385E1,7.7749504E1,1.1458916E1,2.553273E1,2.295047E1,4.9882538E1,2.9172016E1,1.7045881E1,1.2473806E1,2.4849316E1,2.3499527E1,3.6777206E1,1.3116762E1,1.3825417E1,2.4605745E1,1.8906662E1,0E0,0E0,0E0,0E0,0E0,0E0,0E0,0E0,0E0,0E0,0E0,0E0,0E0,0E0,0E0,0E0,0E0,0E0,0E0,0E0,0E0,0E0,0E0,0E0,0E0,0E0,0E0,0E0,0E0,0E0,0E0,0E0],"parents":[2147483647,0,0,1,1,2,2,3,3,4,4,5,5,6,6,7,7,8,8,9,9,10,10,11,11,12,12,13,13,14,14,15,15,16,16,17,17,18,18,19,19,20,20,21,21,22,22,23,23,24,24,25,25,26,26,27,27,28,28,29,29,30,30],"right_children":[2,4,6,8,10,12,14,16,18,20,22,24,26,28,30,32,34,36,38,40,42,44,46,48,50,52,54,56,58,60,62,-1,-1,-1,-1,-1,-1,-1,-1,-1,-1,-1,-1,-1,-1,-1,-1,-1,-1,-1,-1,-1,-1,-1,-1,-1,-1,-1,-1,-1,-1,-1,-1],"split_conditions":[6.547081E-1,7.7775614E-3,2.1520717E-1,1.2257968E0,-1.1905968E0,-1.5328668E0,-1.1928391E-1,1.4803985E-4,-1.2312957E0,1.157028E0,1.0379546E0,-8.1273794E-1,-1.0468729E0,-7.6011896E-1,5.0150025E-1,-1.2642537E0,-3.2992697E-1,-6.9269025E-1,1.1558638E-1,8.80915E-1,2.8127873E-1,-3.656891E-1,-7.735713E-1,3.121273E-1,8.985176E-1,-1.3819466E0,9.934587E-1,5.623785E-1,7.9643893E-1,-5.2507E-1,5.84772E-1,8.089097E-3,1.2709652E-3,8.4673264E-4,-5.913718E-3,1.4998884E-3,-2.7749814E-2,2.0609025E-2,6.9771186E-3,-1.9000242E-2,-7.2473767E-3,-2.3615764E-2,1.9002693E-2,-2.3391141E-4,-3.959222E-3,-4.073973E-3,6.680998E-3,2.5676407E-2,-2.4527838E-2,-2.4025947E-2,1.8355248E-2,2.131406E-3,2.1551961E-2,2.4619684E-4,8.450476E-3,1.135943E-2,-5.571672E-3,-1.49621945E-2,-4.4024778E-3,7.96183E-3,-5.5852823E-4,5.1176846E-3,1.5664883E-2],"split_indices":[20,18,18,45,20,45,22,54,25,45,27,47,45,30,27,25,45,38,47,55,5,53,47,26,19,45,20,25,45,36,47,0,0,0,0,0,0,0,0,0,0,0,0,0,0,0,0,0,0,0,0,0,0,0,0,0,0,0,0,0,0,0,0],"split_type":[0,0,0,0,0,0,0,0,0,0,0,0,0,0,0,0,0,0,0,0,0,0,0,0,0,0,0,0,0,0,0,0,0,0,0,0,0,0,0,0,0,0,0,0,0,0,0,0,0,0,0,0,0,0,0,0,0,0,0,0,0,0,0],"sum_hessian":[1.1885127E4,9.337479E3,2.547649E3,5.103012E3,4.234466E3,1.1316697E3,1.4159791E3,4.856112E3,2.4690074E2,3.1845944E2,3.9160063E3,6.160221E1,1.0700674E3,2.74749E2,1.1412302E3,1.972775E3,2.8833367E3,2.1789803E1,2.2511093E2,2.699041E2,4.8555336E1,3.573442E3,3.4256427E2,1.4321514E1,4.7280697E1,1.2751896E2,9.4254846E2,7.1353294E1,2.0339568E2,8.4452454E2,2.967057E2,4.286412E2,1.5441338E3,1.7847866E3,1.0985499E3,8.367625E0,1.3422178E1,9.814241E1,1.2696853E2,1.4236517E2,1.2753893E2,1.5179496E1,3.337584E1,1.3531533E3,2.2202886E3,7.4770546E1,2.6779373E2,1.2822506E1,1.4990082E0,4.166853E1,5.612168E0,3.419337E1,9.332559E1,3.4403116E2,5.985173E2,3.482697E1,3.6526325E1,8.711529E1,1.16280396E2,1.6855441E2,6.759701E2,1.906139E2,1.06091774E2],"tree_param":{"num_deleted":"0","num_feature":"56","num_nodes":"63","size_leaf_vector":"1"}},{"base_weights":[-6.389255E-3,-5.1526506E-2,1.586189E-1,-2.1319468E-2,-2.4926339E-1,1.280563E-1,4.9030253E-1,-4.4902533E-2,2.2218032E-1,-1.8220599E-1,-6.616892E-1,2.687695E-1,-3.4770058E-3,6.9310623E-1,-5.0035363E-1,5.299886E-2,-1.5770043E-1,2.5420937E-1,-1.3152735E0,-3.1390196E-1,-2.3135982E-2,-7.220839E-1,9.627478E-1,-4.533509E-1,3.1245106E-1,-2.7983E-1,7.515989E-2,1.9976199E-1,9.4604963E-1,-1.095022E0,2.3807521E-1,-7.329617E-3,1.5747367E-3,-3.693237E-3,4.702473E-3,1.0489451E-2,2.466626E-3,1.0149365E-3,-3.2212265E-2,-1.5323454E-2,-4.58618E-3,-3.6982007E-3,4.4127307E-3,-1.1777837E-2,-2.9362954E-2,2.9017527E-2,-1.1082276E-2,1.5890969E-2,-1.63265E-2,1.615517E-2,4.9172705E-3,-1.6897846E-2,-3.360672E-3,-4.106714E-3,4.1692103E-3,-1.1247941E-2,1.0025255E-2,3.0134516E-3,2.1332247E-2,-3.190338E-2,1.579035E-2,2.4062125E-2,-1.5475266E-2],"categories":[],"categories_nodes":[],"categories_segments":[],"categories_sizes":[],"default_left":[0,0,0,0,0,0,0,0,0,0,0,0,0,0,0,0,0,0,0,0,0,0,0,0,0,0,0,0,0,0,0,0,0,0,0,0,0,0,0,0,0,0,0,0,0,0,0,0,0,0,0,0,0,0,0,0,0,0,0,0,0,0,0],"id":15,"left_children":[1,3,5,7,9,11,13,15,17,19,21,23,25,27,29,31,33,35,37,39,41,43,45,47,49,51,53,55,57,59,61,-1,-1,-1,-1,-1,-1,-1,-1,-1,-1,-1,-1,-1,-1,-1,-1,-1,-1,-1,-1,-1,-1,-1,-1,-1,-1,-1,-1,-1,-1,-1,-1],"loss_changes":[8.857847E1,5.577283E1,2.5832375E1,4.6534866E1,3.4101646E1,4.3316742E1,4.3575943E1,8.158726E1,3.5570526E1,2.2318768E1,1.763607E1,3.5808296E1,2.6329357E1,2.2151085E1,1.657142E1,4.27353E1,3.64003E1,2.4758698E1,6.038353E0,2.2127586E1,1.9119265E1,1.5735992E1,5.7043557E0,3.0047443E1,3.4986298E1,1.6812338E1,3.53101E1,1.4516405E1,1.1162201E1,2.0820498E1,1.7912128E1,0E0,0E0,0E0,0E0,0E0,0E0,0E0,0E0,0E0,0E0,0E0,0E0,0E0,0E0,0E0,0E0,0E0,0E0,0E0,0E0,0E0,0E0,0E0,0E0,0E0,0E0,0E0,0E0,0E0,0E0,0E0,0E0],"parents":[2147483647,0,0,1,1,2,2,3,3,4,4,5,5,6,6,7,7,8,8,9,9,10,10,11,11,12,12,13,13,14,14,15,15,16,16,17,17,18,18,19,19,20,20,21,21,22,22,23,23,24,24,25,25,26,26,27,27,28,28,29,29,30,30],"right_children":[2,4,6,8,10,12,14,16,18,20,22,24,26,28,30,32,34,36,38,40,42,44,46,48,50,52,54,56,58,60,62,-1,-1,-1,-1,-1,-1,-1,-1,-1,-1,-1,-1,-1,-1,-1,-1,-1,-1,-1,-1,-1,-1,-1,-1,-1,-1,-1,-1,-1,-1,-1,-1],"split_conditions":[6.547081E-1,8.4280884E-1,1.7895329E0,1.2867723E0,7.074186E-1,2.2147736E-1,2.8571405E0,-1.9023097E-1,1.7098397E0,-3.2778618E-1,2.722054E0,-1.5328668E0,-1.1928391E-1,1.01893276E-1,1.3832628E0,-1.8561836E0,8.232418E-1,-3.651418E-1,-8.413364E-1,-1.6559615E0,4.6773914E-1,1.1810752E0,7.597886E-1,-8.1273794E-1,-1.0468729E0,-1.3100366E-1,3.7121043E-1,-6.0074115E-1,4.5981553E-1,1.2248541E0,-4.0986115E-1,-7.329617E-3,1.5747367E-3,-3.693237E-3,4.702473E-3,1.0489451E-2,2.466626E-3,1.0149365E-3,-3.2212265E-2,-1.5323454E-2,-4.58618E-3,-3.6982007E-3,4.4127307E-3,-1.1777837E-2,-2.9362954E-2,2.9017527E-2,-1.1082276E-2,1.5890969E-2,-1.63265E-2,1.615517E-2,4.9172705E-3,-1.6897846E-2,-3.360672E-3,-4.106714E-3,4.1692103E-3,-1.1247941E-2,1.0025255E-2,3.0134516E-3,2.1332247E-2,-3.190338E-2,1.579035E-2,2.4062125E-2,-1.5475266E-2],"split_indices":[20,22,17,45,47,18,19,45,26,27,16,45,22,27,45,17,26,36,38,20,45,30,13,47,45,45,19,30,22,53,30,0,0,0,0,0,0,0,0,0,0,0,0,0,0,0,0,0,0,0,0,0,0,0,0,0,0,0,0,0,0,0,0],"split_type":[0,0,0,0,0,0,0,0,0,0,0,0,0,0,0,0,0,0,0,0,0,0,0,0,0,0,0,0,0,0,0,0,0,0,0,0,0,0,0,0,0,0,0,0,0,0,0,0,0,0,0,0,0,0,0,0,0,0,0,0,0,0,0],"sum_hessian":[1.18908E4,9.337309E3,2.5534915E3,8.100893E3,1.2364153E3,2.3393235E3,2.1416806E2,7.3863384E3,7.145546E2,1.0647384E3,1.7167685E2,1.1297179E3,1.2096056E3,1.7802397E2,3.6144096E1,3.954561E3,3.431777E3,7.0079004E2,1.37645645E1,5.8195636E2,4.827821E2,1.6605847E2,5.6183815E0,6.39045E1,1.0658134E3,2.673835E2,9.422221E2,6.094525E1,1.1707872E2,1.9753437E1,1.6390661E1,2.2784732E2,3.7267139E3,3.2118613E3,2.1991573E2,2.2766156E2,4.731285E2,2.59415E0,1.1170415E1,9.042858E1,4.9152777E2,2.9034363E2,1.9243846E2,1.4242175E2,2.3636715E1,4.2834587E0,1.3349228E0,1.4131529E1,4.977297E1,1.2498549E2,9.408279E2,4.3080505E1,2.24303E2,3.0335403E2,6.3886804E2,1.7030018E1,4.3915234E1,1.5706896E1,1.0137182E2,1.5731838E1,4.0215983E0,8.292623E0,8.098038E0],"tree_param":{"num_deleted":"0","num_feature":"56","num_nodes":"63","size_leaf_vector":"1"}},{"base_weights":[9.811152E-3,-1.8897098E-1,3.689723E-2,-1.4315814E-1,-8.3550304E-1,1.2000601E-1,-3.1380583E-2,-3.2204606E-2,-4.7480935E-1,3.6257142E-1,-9.5936817E-1,1.9436544E-1,2.1981815E-2,-4.243435E-2,5.6206167E-1,7.55655E-2,-3.332526E-1,1.2713739E0,-5.027335E-1,8.7539375E-1,-2.446777E-2,-1.0687214E0,4.310617E-1,7.4296355E-1,1.6722758E-1,7.437921E-2,-2.2082298E-1,-3.5610117E-2,-1.0933862E0,6.726745E-1,-3.131506E-2,-3.895132E-3,6.0405275E-3,-1.890532E-2,-4.281107E-3,2.9815503E-3,3.0776953E-2,-2.2658998E-2,-8.528441E-3,2.902518E-2,-4.8437114E-3,-3.0257627E-2,-1.5495679E-2,-1.7838899E-2,2.3641719E-2,1.7705714E-2,-1.569979E-2,3.4940615E-3,-1.9598527E-2,3.4414904E-4,9.418247E-3,1.5599887E-3,-7.6227584E-3,1.1944405E-3,-1.885342E-3,1.3065843E-2,-2.5137147E-2,-9.030243E-3,1.801726E-2],"categories":[],"categories_nodes":[],"categories_segments":[],"categories_sizes":[],"default_left":[0,0,0,0,0,0,0,0,0,0,0,0,0,0,0,0,0,0,0,0,0,0,0,0,0,0,0,0,0,0,0,0,0,0,0,0,0,0,0,0,0,0,0,0,0,0,0,0,0,0,0,0,0,0,0,0,0,0,0],"id":16,"left_children":[1,3,5,7,9,11,13,15,17,19,21,23,25,27,29,31,33,35,37,39,-1,41,43,45,47,49,51,53,55,57,-1,-1,-1,-1,-1,-1,-1,-1,-1,-1,-1,-1,-1,-1,-1,-1,-1,-1,-1,-1,-1,-1,-1,-1,-1,-1,-1,-1,-1],"loss_changes":[6.393537E1,4.205863E1,5.930365E1,4.8962074E1,1.430043E1,3.4352173E1,3.7662632E1,3.2417286E1,1.690487E1,8.826229E0,1.3458504E1,3.9776886E1,2.5897749E1,4.036652E1,2.5764408E1,4.511629E1,1.9011114E1,1.4317865E0,1.5341721E1,5.363888E0,0E0,9.212128E0,7.9554987E0,2.8103767E1,2.2082466E1,3.7941948E1,1.7339834E1,3.1311937E1,1.1189587E1,2.6188377E1,0E0,0E0,0E0,0E0,0E0,0E0,0E0,0E0,0E0,0E0,0E0,0E0,0E0,0E0,0E0,0E0,0E0,0E0,0E0,0E0,0E0,0E0,0E0,0E0,0E0,0E0,0E0,0E0,0E0],"parents":[2147483647,0,0,1,1,2,2,3,3,4,4,5,5,6,6,7,7,8,8,9,9,10,10,11,11,12,12,13,13,14,14,15,15,16,16,17,17,18,18,19,19,21,21,22,22,23,23,24,24,25,25,26,26,27,27,28,28,29,29],"right_children":[2,4,6,8,10,12,14,16,18,20,22,24,26,28,30,32,34,36,38,40,-1,42,44,46,48,50,52,54,56,58,-1,-1,-1,-1,-1,-1,-1,-1,-1,-1,-1,-1,-1,-1,-1,-1,-1,-1,-1,-1,-1,-1,-1,-1,-1,-1,-1,-1,-1],"split_conditions":[-9.221212E-1,1.9760991E0,7.7775614E-3,-6.084048E-2,-3.7915704E0,6.136244E-1,2.7171535E0,-1.4862339E-1,-1.8396906E0,-2.2767568E-1,6.312497E-2,-1.6929133E0,6.17119E-1,2.228528E0,2.0704608E0,-8.8383025E-1,-8.53538E-2,-7.057669E-1,-1.1688019E0,-2.9782987E0,-2.446777E-2,1.7833105E-1,4.5406523E-1,-1.7371331E-1,3.0387192E0,5.499589E-1,-3.436685E-1,-3.656891E-1,3.553527E-1,-7.735713E-1,-3.131506E-2,-3.895132E-3,6.0405275E-3,-1.890532E-2,-4.281107E-3,2.9815503E-3,3.0776953E-2,-2.2658998E-2,-8.528441E-3,2.902518E-2,-4.8437114E-3,-3.0257627E-2,-1.5495679E-2,-1.7838899E-2,2.3641719E-2,1.7705714E-2,-1.569979E-2,3.4940615E-3,-1.9598527E-2,3.4414904E-4,9.418247E-3,1.5599887E-3,-7.6227584E-3,1.1944405E-3,-1.885342E-3,1.3065843E-2,-2.5137147E-2,-9.030243E-3,1.801726E-2],"split_indices":[19,27,18,26,18,54,27,47,25,47,22,25,27,25,5,47,47,52,25,19,0,12,5,22,47,5,47,53,22,47,0,0,0,0,0,0,0,0,0,0,0,0,0,0,0,0,0,0,0,0,0,0,0,0,0,0,0,0,0],"split_type":[0,0,0,0,0,0,0,0,0,0,0,0,0,0,0,0,0,0,0,0,0,0,0,0,0,0,0,0,0,0,0,0,0,0,0,0,0,0,0,0,0,0,0,0,0,0,0,0,0,0,0,0,0,0,0,0,0,0,0],"sum_hessian":[1.187227E4,1.423004E3,1.0449266E4,1.3299836E3,9.302035E1,4.7124473E3,5.736819E3,9.9740125E2,3.3258237E2,8.53539E0,8.4484955E1,2.6791262E3,2.0333209E3,5.632827E3,1.0399149E2,7.3502405E2,2.6237723E2,4.533903E0,3.2804846E2,6.7883897E0,1.7469999E0,7.853943E1,5.945524E0,1.25039856E2,2.5540864E3,1.6729839E3,3.603371E2,5.597514E3,3.5312916E1,9.9502785E1,4.48871E0,3.3512802E2,3.9989603E2,4.1641323E1,2.207359E2,1.1723174E0,3.3615859E0,3.393668E1,2.941118E2,4.282918E0,2.5054717E0,2.9625813E1,4.891362E1,2.0849798E0,3.8605444E0,1.1477013E2,1.02697315E1,2.5383926E3,1.5693885E1,1.4630815E3,2.0990224E2,1.2599659E2,2.3434052E2,2.132178E3,3.4653364E3,2.7656612E0,3.2547256E1,1.662414E1,8.287865E1],"tree_param":{"num_deleted":"0","num_feature":"56","num_nodes":"59","size_leaf_vector":"1"}},{"base_weights":[-9.1229165E-3,-4.236188E-2,1.9019622E-1,-6.244052E-1,-3.4674376E-2,3.143524E-1,-2.3123574E-1,-3.2241693E-1,-1.2530295E0,4.974867E-2,-9.4873756E-2,3.5153997E-1,-6.7756647E-1,-7.619276E-1,-1.1131876E-2,3.8906574E-1,-8.419034E-1,3.3808693E-1,-1.4853272E0,1.1009262E-1,-8.083994E-2,-1.5353948E-1,1.3837765E-1,6.5566266E-1,2.5359473E-1,8.120512E-2,-1.461174E0,-1.4009072E0,-3.7670323E-1,9.6109366E-1,-1.3050917E-1,-3.1006543E-2,1.2772271E-2,-1.8721161E-3,-3.0292276E-2,-1.6865797E-2,2.2551749E-2,-1.4608856E-2,-3.542075E-2,-2.4925591E-3,3.230823E-3,-6.819945E-3,1.0917407E-3,-3.923947E-3,1.9211213E-3,-1.9196512E-2,3.3758667E-3,1.630826E-2,-2.9860123E-3,-1.5479187E-4,1.0771602E-2,-2.3731245E-2,8.933284E-3,1.0324275E-2,-3.552639E-2,2.8256776E-2,-3.20394E-2,4.9157124E-3,-3.0881133E-2,2.3310883E-2,-2.0661378E-2,-5.3982735E-3,7.273954E-3],"categories":[],"categories_nodes":[],"categories_segments":[],"categories_sizes":[],"default_left":[0,0,0,0,0,0,0,0,0,0,0,0,0,0,0,0,0,0,0,0,0,0,0,0,0,0,0,0,0,0,0,0,0,0,0,0,0,0,0,0,0,0,0,0,0,0,0,0,0,0,0,0,0,0,0,0,0,0,0,0,0,0,0],"id":17,"left_children":[1,3,5,7,9,11,13,15,17,19,21,23,25,27,29,31,33,35,37,39,41,43,45,47,49,51,53,55,57,59,61,-1,-1,-1,-1,-1,-1,-1,-1,-1,-1,-1,-1,-1,-1,-1,-1,-1,-1,-1,-1,-1,-1,-1,-1,-1,-1,-1,-1,-1,-1,-1,-1],"loss_changes":[7.874566E1,4.5558815E1,8.896088E1,2.479356E1,5.1106766E1,4.865822E1,4.521547E1,3.396412E1,1.6294212E1,3.2996353E1,8.034515E1,3.7540985E1,2.8524965E1,2.740725E1,3.2005215E1,1.9908508E1,2.6495785E1,6.787464E0,6.787422E0,3.46E1,4.6651672E1,4.9962555E1,3.9583656E1,3.9695312E1,7.143741E1,1.2214735E1,1.55960655E1,2.6203812E1,5.2823036E1,1.3499908E1,1.7013271E1,0E0,0E0,0E0,0E0,0E0,0E0,0E0,0E0,0E0,0E0,0E0,0E0,0E0,0E0,0E0,0E0,0E0,0E0,0E0,0E0,0E0,0E0,0E0,0E0,0E0,0E0,0E0,0E0,0E0,0E0,0E0,0E0],"parents":[2147483647,0,0,1,1,2,2,3,3,4,4,5,5,6,6,7,7,8,8,9,9,10,10,11,11,12,12,13,13,14,14,15,15,16,16,17,17,18,18,19,19,20,20,21,21,22,22,23,23,24,24,25,25,26,26,27,27,28,28,29,29,30,30],"right_children":[2,4,6,8,10,12,14,16,18,20,22,24,26,28,30,32,34,36,38,40,42,44,46,48,50,52,54,56,58,60,62,-1,-1,-1,-1,-1,-1,-1,-1,-1,-1,-1,-1,-1,-1,-1,-1,-1,-1,-1,-1,-1,-1,-1,-1,-1,-1,-1,-1,-1,-1,-1,-1],"split_conditions":[9.6951187E-1,-2.0637352E0,1.1952173E0,-8.254686E-1,-3.178596E-1,2.5929239E0,1.3719809E0,-3.7658215E-2,-1.7927411E0,1.1055942E0,1.2257968E0,-3.0598272E-2,1.9433559E0,6.136244E-1,-5.195588E-1,-1.961606E0,-2.312938E0,-5.037884E-1,-3.3587542E-1,-1.105298E0,-1.2254521E0,1.1212335E0,-1.2312957E0,1.1363138E0,3.946824E-1,2.4303384E-2,-1.0198225E0,-5.790268E-1,1.3786168E0,1.2263627E0,7.2683346E-1,-3.1006543E-2,1.2772271E-2,-1.8721161E-3,-3.0292276E-2,-1.6865797E-2,2.2551749E-2,-1.4608856E-2,-3.542075E-2,-2.4925591E-3,3.230823E-3,-6.819945E-3,1.0917407E-3,-3.923947E-3,1.9211213E-3,-1.9196512E-2,3.3758667E-3,1.630826E-2,-2.9860123E-3,-1.5479187E-4,1.0771602E-2,-2.3731245E-2,8.933284E-3,1.0324275E-2,-3.552639E-2,2.8256776E-2,-3.20394E-2,4.9157124E-3,-3.0881133E-2,2.3310883E-2,-2.0661378E-2,-5.3982735E-3,7.273954E-3],"split_indices":[20,47,45,45,45,19,45,5,19,54,45,19,20,54,17,45,19,35,5,54,45,29,25,5,45,47,35,47,54,52,33,0,0,0,0,0,0,0,0,0,0,0,0,0,0,0,0,0,0,0,0,0,0,0,0,0,0,0,0,0,0,0,0],"split_type":[0,0,0,0,0,0,0,0,0,0,0,0,0,0,0,0,0,0,0,0,0,0,0,0,0,0,0,0,0,0,0,0,0,0,0,0,0,0,0,0,0,0,0,0,0,0,0,0,0,0,0,0,0,0,0,0,0,0,0,0,0,0,0],"sum_hessian":[1.188363E4,1.0185807E4,1.6978235E3,1.3173251E2,1.0054074E4,1.3116564E3,3.8616708E2,9.000662E1,4.172589E1,4.185101E3,5.868973E3,1.264881E3,4.6775486E1,1.1248737E2,2.7367972E2,3.8090023E1,5.19166E1,5.2577434E0,3.6468147E1,2.8625134E3,1.3225875E3,4.689776E3,1.1791969E3,3.067426E2,9.5813837E2,2.4219746E1,2.2555742E1,4.1317158E1,7.117021E1,2.9158432E1,2.4452127E2,3.7481608E0,3.434186E1,2.5116789E1,2.6799812E1,2.078872E0,3.1788714E0,1.0989366E1,2.547878E1,5.143774E2,2.348136E3,4.522638E2,8.703237E2,4.00543E3,6.8434607E2,3.095523E1,1.1482417E3,2.559372E2,5.080541E1,5.0031638E2,4.5782196E2,4.9167843E0,1.9302961E1,3.0129426E0,1.95428E1,2.3535714E0,3.896359E1,4.6932827E1,2.4237387E1,2.6823853E1,2.33458E0,1.9107672E2,5.3444546E1],"tree_param":{"num_deleted":"0","num_feature":"56","num_nodes":"63","size_leaf_vector":"1"}},{"base_weights":[-3.0068948E-3,-4.3168716E-2,1.445107E-1,-1.154303E-2,-2.501319E-1,8.8012405E-2,4.7666553E-1,-3.5756406E-1,4.099782E-3,-2.084384E-1,-9.911231E-1,2.8217044E-1,-1.8414706E-3,-3.0082686E-2,5.0760305E-1,1.3915628E-1,-4.9188697E-1,1.4329045E-1,-4.4142917E-2,-5.986146E-1,-1.5147673E-1,-1.4490381E0,-3.3029795E-1,8.3889043E-1,2.14086E-1,-2.6801136E-1,9.997272E-2,1.0152563E0,3.757536E-1,-2.5316546E-2,6.4905775E-3,1.6785196E-3,-1.2860941E-2,-3.9650232E-4,4.729213E-3,-1.537495E-3,4.0018624E-3,-1.1548674E-3,-1.7155575E-2,-3.9640022E-3,8.92519E-3,-3.0865394E-2,2.0654613E-2,-1.6754385E-2,7.5722234E-3,2.055365E-2,-8.438604E-3,-1.4790761E-2,5.332942E-3,7.219967E-3,-7.879467E-3,2.4083091E-3,-2.2569021E-2,1.2957419E-2,2.7065068E-2,1.3497531E-2,3.7361358E-3],"categories":[],"categories_nodes":[],"categories_segments":[],"categories_sizes":[],"default_left":[0,0,0,0,0,0,0,0,0,0,0,0,0,0,0,0,0,0,0,0,0,0,0,0,0,0,0,0,0,0,0,0,0,0,0,0,0,0,0,0,0,0,0,0,0,0,0,0,0,0,0,0,0,0,0,0,0],"id":18,"left_children":[1,3,5,7,9,11,13,15,17,19,21,23,25,-1,27,29,31,33,35,37,39,41,43,45,47,49,51,53,55,-1,-1,-1,-1,-1,-1,-1,-1,-1,-1,-1,-1,-1,-1,-1,-1,-1,-1,-1,-1,-1,-1,-1,-1,-1,-1,-1,-1],"loss_changes":[7.042372E1,6.115033E1,4.7692863E1,4.3875008E1,3.8053032E1,3.794729E1,2.3409592E1,2.3460663E1,5.2087383E1,2.5994724E1,1.9403168E1,2.5904255E1,4.035034E1,0E0,2.4023163E1,2.0050255E1,2.409356E1,3.0346851E1,4.6066376E1,2.0861675E1,2.8729208E1,1.060083E1,1.0456927E1,1.8201622E1,3.0998657E1,3.2782524E1,2.7181854E1,8.384956E0,1.6322079E1,0E0,0E0,0E0,0E0,0E0,0E0,0E0,0E0,0E0,0E0,0E0,0E0,0E0,0E0,0E0,0E0,0E0,0E0,0E0,0E0,0E0,0E0,0E0,0E0,0E0,0E0,0E0,0E0],"parents":[2147483647,0,0,1,1,2,2,3,3,4,4,5,5,6,6,7,7,8,8,9,9,10,10,11,11,12,12,14,14,15,15,16,16,17,17,18,18,19,19,20,20,21,21,22,22,23,23,24,24,25,25,26,26,27,27,28,28],"right_children":[2,4,6,8,10,12,14,16,18,20,22,24,26,-1,28,30,32,34,36,38,40,42,44,46,48,50,52,54,56,-1,-1,-1,-1,-1,-1,-1,-1,-1,-1,-1,-1,-1,-1,-1,-1,-1,-1,-1,-1,-1,-1,-1,-1,-1,-1,-1,-1],"split_conditions":[6.547081E-1,8.4280884E-1,1.4134922E0,-1.8561836E0,1.892234E0,-7.111993E-2,-1.961606E0,-2.709902E0,-3.9273694E-1,-1.6559615E0,-9.4024315E-2,-2.0493135E0,-2.095018E-1,-3.0082686E-2,-9.537914E-1,-1.846617E0,-1.01353E0,-9.221212E-1,1.2720506E0,-1.7927411E0,2.091413E0,3.6416E0,7.072899E-1,1.0137022E0,-1.5328668E0,-9.477454E-1,2.3861694E0,3.174175E-1,1.0135106E0,-2.5316546E-2,6.4905775E-3,1.6785196E-3,-1.2860941E-2,-3.9650232E-4,4.729213E-3,-1.537495E-3,4.0018624E-3,-1.1548674E-3,-1.7155575E-2,-3.9640022E-3,8.92519E-3,-3.0865394E-2,2.0654613E-2,-1.6754385E-2,7.5722234E-3,2.055365E-2,-8.438604E-3,-1.4790761E-2,5.332942E-3,7.219967E-3,-7.879467E-3,2.4083091E-3,-2.2569021E-2,1.2957419E-2,2.7065068E-2,1.3497531E-2,3.7361358E-3],"split_indices":[20,22,55,17,25,26,45,19,19,20,5,22,22,0,45,45,11,19,45,19,26,14,53,31,45,30,5,29,46,0,0,0,0,0,0,0,0,0,0,0,0,0,0,0,0,0,0,0,0,0,0,0,0,0,0,0,0],"split_type":[0,0,0,0,0,0,0,0,0,0,0,0,0,0,0,0,0,0,0,0,0,0,0,0,0,0,0,0,0,0,0,0,0,0,0,0,0,0,0,0,0,0,0,0,0,0,0,0,0,0,0,0,0,0,0,0,0],"sum_hessian":[1.1884659E4,9.341998E3,2.5426614E3,8.1046035E3,1.2373945E3,2.174117E3,3.6854425E2,3.4959775E2,7.7550054E3,1.1726917E3,6.4702805E1,6.871561E2,1.4869608E3,4.9353657E0,3.636089E2,7.440719E1,2.7519055E2,1.9955217E3,5.759484E3,1.4817987E2,1.0245118E3,3.751454E1,2.7188265E1,7.364518E1,6.13511E2,4.109621E2,1.0759988E3,7.358566E1,2.9002322E2,7.9935546E0,6.6413635E1,5.7313072E1,2.1787749E2,7.257388E2,1.269783E3,5.079437E3,6.800467E2,4.839764E1,9.978223E1,9.5085455E2,7.365725E1,3.6506565E1,1.0079793E0,1.5740129E1,1.1448134E1,6.421474E1,9.430442E0,3.1365831E1,5.8214514E2,6.825497E1,3.4270715E2,1.059273E3,1.6725851E1,3.6657578E1,3.6928085E1,1.11281296E2,1.7874193E2],"tree_param":{"num_deleted":"0","num_feature":"56","num_nodes":"57","size_leaf_vector":"1"}},{"base_weights":[-3.4748616E-3,-4.3917067E-2,1.4525536E-1,-2.0339064E-2,-2.9275146E-1,2.097187E-1,-8.113298E-2,-5.904661E-1,-1.2362369E-2,-2.2959797E-1,-7.148026E-1,1.6986858E-2,3.154358E-1,3.4054163E-1,-2.5939858E-1,-2.2865208E-2,-8.865895E-1,6.086766E-2,-7.984213E-2,-3.77775E-1,2.0051166E-2,5.364678E-1,-8.321024E-1,-3.038104E-1,1.2257043E-1,3.500187E-1,-5.7124376E-1,6.730992E-1,-4.861188E-2,-7.4744445E-1,-2.7432801E-2,3.1705618E-2,-6.7621283E-3,-2.9831296E-2,-1.3953126E-2,7.2149974E-3,5.6229276E-4,-2.776953E-3,3.1694248E-3,-1.9758126E-2,-4.676273E-3,-4.7362787E-3,8.304472E-3,-2.1241257E-2,1.9168537E-2,-2.3214282E-2,-7.190278E-3,2.0715983E-3,-1.7178543E-2,4.7579645E-3,-5.619226E-3,4.4473344E-3,1.1925459E-2,4.7433656E-3,-2.9530896E-2,-1.4281829E-3,2.2321088E-2,1.032264E-2,-1.21977525E-2,-1.722145E-2,9.061655E-3,-1.493432E-2,2.4223304E-3],"categories":[],"categories_nodes":[],"categories_segments":[],"categories_sizes":[],"default_left":[0,0,0,0,0,0,0,0,0,0,0,0,0,0,0,0,0,0,0,0,0,0,0,0,0,0,0,0,0,0,0,0,0,0,0,0,0,0,0,0,0,0,0,0,0,0,0,0,0,0,0,0,0,0,0,0,0,0,0,0,0,0,0],"id":19,"left_children":[1,3,5,7,9,11,13,15,17,19,21,23,25,27,29,31,33,35,37,39,41,43,45,47,49,51,53,55,57,59,61,-1,-1,-1,-1,-1,-1,-1,-1,-1,-1,-1,-1,-1,-1,-1,-1,-1,-1,-1,-1,-1,-1,-1,-1,-1,-1,-1,-1,-1,-1,-1,-1],"loss_changes":[7.1487206E1,5.481544E1,3.7096966E1,3.8813587E1,2.1390244E1,4.0295525E1,4.247354E1,1.9773338E1,4.1610485E1,2.6083061E1,1.5825699E1,2.380415E1,3.93659E1,2.1771542E1,4.491037E1,2.1524366E1,7.8018837E0,3.9654335E1,6.164434E1,3.8626686E1,2.6844938E1,7.4857454E0,1.4521378E1,3.9449173E1,2.4669165E1,3.8530228E1,3.5718323E1,2.99719E1,2.514504E1,1.7827202E1,2.8945679E1,0E0,0E0,0E0,0E0,0E0,0E0,0E0,0E0,0E0,0E0,0E0,0E0,0E0,0E0,0E0,0E0,0E0,0E0,0E0,0E0,0E0,0E0,0E0,0E0,0E0,0E0,0E0,0E0,0E0,0E0,0E0,0E0],"parents":[2147483647,0,0,1,1,2,2,3,3,4,4,5,5,6,6,7,7,8,8,9,9,10,10,11,11,12,12,13,13,14,14,15,15,16,16,17,17,18,18,19,19,20,20,21,21,22,22,23,23,24,24,25,25,26,26,27,27,28,28,29,29,30,30],"right_children":[2,4,6,8,10,12,14,16,18,20,22,24,26,28,30,32,34,36,38,40,42,44,46,48,50,52,54,56,58,60,62,-1,-1,-1,-1,-1,-1,-1,-1,-1,-1,-1,-1,-1,-1,-1,-1,-1,-1,-1,-1,-1,-1,-1,-1,-1,-1,-1,-1,-1,-1,-1,-1],"split_conditions":[6.547081E-1,1.1214403E0,1.1952173E0,-2.0637352E0,7.074186E-1,9.934587E-1,9.2302877E-1,1.4803985E-4,-1.9023097E-1,1.1374234E0,-1.3785464E0,-6.116278E-1,2.5929239E0,6.136244E-1,1.4803985E-4,-2.449203E0,-7.61735E-1,-1.3874375E0,1.2257968E0,-1.5622064E0,4.433175E-1,1.0526959E0,1.2271993E0,6.136244E-1,6.686679E-1,6.0516834E-1,1.9433559E0,6.604954E-1,1.3832628E0,1.6543913E0,1.2970084E0,3.1705618E-2,-6.7621283E-3,-2.9831296E-2,-1.3953126E-2,7.2149974E-3,5.6229276E-4,-2.776953E-3,3.1694248E-3,-1.9758126E-2,-4.676273E-3,-4.7362787E-3,8.304472E-3,-2.1241257E-2,1.9168537E-2,-2.3214282E-2,-7.190278E-3,2.0715983E-3,-1.7178543E-2,4.7579645E-3,-5.619226E-3,4.4473344E-3,1.1925459E-2,4.7433656E-3,-2.9530896E-2,-1.4281829E-3,2.2321088E-2,1.032264E-2,-1.21977525E-2,-1.722145E-2,9.061655E-3,-1.493432E-2,2.4223304E-3],"split_indices":[20,22,45,47,47,20,20,54,45,28,9,25,19,54,54,44,35,20,45,20,45,47,36,54,47,45,20,19,45,47,45,0,0,0,0,0,0,0,0,0,0,0,0,0,0,0,0,0,0,0,0,0,0,0,0,0,0,0,0,0,0,0,0],"split_type":[0,0,0,0,0,0,0,0,0,0,0,0,0,0,0,0,0,0,0,0,0,0,0,0,0,0,0,0,0,0,0,0,0,0,0,0,0,0,0,0,0,0,0,0,0,0,0,0,0,0,0,0,0,0,0,0,0,0,0,0,0,0,0],"sum_hessian":[1.1882806E4,9.342995E3,2.5398103E3,8.535322E3,8.076725E2,1.9769529E3,5.628574E2,1.1676308E2,8.41856E3,7.0389014E2,1.0378237E2,7.0069073E2,1.2762622E3,1.6697638E2,3.95881E2,4.040094E1,7.636214E1,4.0373096E3,4.38125E3,4.4139236E2,2.6249777E2,8.588877E0,9.51935E1,1.7304532E2,5.276454E2,1.2289355E3,4.7326607E1,8.964182E1,7.733456E1,1.2682486E2,2.6905615E2,5.961358E0,3.4439583E1,1.6531769E1,5.9830368E1,3.9654877E2,3.6407607E3,3.5120874E3,8.691626E2,8.314562E1,3.5824673E2,1.5933168E2,1.0316607E2,1.4768944E0,7.1119823E0,5.5291084E1,3.9902412E1,1.0027136E2,7.277396E1,4.10684E2,1.1696141E2,8.1062897E2,4.183066E2,2.5391043E1,2.1935564E1,3.375165E1,5.589017E1,3.8588276E1,3.874628E1,1.1611728E2,1.0707578E1,4.5365833E1,2.2369034E2],"tree_param":{"num_deleted":"0","num_feature":"56","num_nodes":"63","size_leaf_vector":"1"}},{"base_weights":[3.0279224E-4,-3.8344588E-2,1.4232028E-1,-1.1441991E-2,-2.0692109E-1,9.0950914E-2,4.399475E-1,-2.0873155E-1,1.6271573E-2,-2.6055124E-1,1.390187E-1,1.7468941E-1,-3.5344794E-2,-1.0544896E0,4.7814348E-1,-8.189512E-3,-5.480051E-1,1.6469213E-1,-1.7913694E-2,3.2470098E-1,-2.9387787E-1,2.0777255E-1,-1.2574662E0,3.5638243E-1,7.568603E-2,-2.2060132E-2,-1.123091E0,4.8112415E-2,-1.4665726E0,8.845344E-1,3.374403E-1,1.5208777E-3,-1.4246026E-2,-3.7543916E-3,-1.9261241E-2,7.6499055E-3,8.158895E-4,-2.6058976E-4,-1.8159008E-2,1.0596946E-2,-2.7459938E-2,-6.5916916E-3,2.1065127E-3,5.8282875E-3,-2.563106E-2,-3.3986382E-2,1.3364784E-2,4.6195374E-3,1.291006E-2,-3.0667128E-5,9.009018E-3,6.688075E-3,-1.3064563E-3,-2.6227014E-2,3.9453376E-3,-1.1532695E-2,1.3436337E-2,-7.2582676E-3,-3.2089088E-2,-2.832781E-2,1.9140027E-2,2.0049343E-2,3.6103555E-3],"categories":[],"categories_nodes":[],"categories_segments":[],"categories_sizes":[],"default_left":[0,0,0,0,0,0,0,0,0,0,0,0,0,0,0,0,0,0,0,0,0,0,0,0,0,0,0,0,0,0,0,0,0,0,0,0,0,0,0,0,0,0,0,0,0,0,0,0,0,0,0,0,0,0,0,0,0,0,0,0,0,0,0],"id":20,"left_children":[1,3,5,7,9,11,13,15,17,19,21,23,25,27,29,31,33,35,37,39,41,43,45,47,49,51,53,55,57,59,61,-1,-1,-1,-1,-1,-1,-1,-1,-1,-1,-1,-1,-1,-1,-1,-1,-1,-1,-1,-1,-1,-1,-1,-1,-1,-1,-1,-1,-1,-1,-1,-1],"loss_changes":[6.512354E1,4.2297188E1,3.8766026E1,4.3987408E1,2.384999E1,2.2911718E1,2.1814903E1,6.741562E1,3.5796448E1,2.177729E1,1.6865124E1,2.3402882E1,1.2465102E1,4.439829E0,2.0556503E1,3.705162E1,5.4865807E1,3.562581E1,2.4918077E1,2.175142E1,1.5034019E1,2.101168E1,8.160702E0,1.6497883E1,2.4436207E1,1.32061E1,2.845975E0,1.784088E0,4.8778534E-1,1.689299E1,2.8260529E1,0E0,0E0,0E0,0E0,0E0,0E0,0E0,0E0,0E0,0E0,0E0,0E0,0E0,0E0,0E0,0E0,0E0,0E0,0E0,0E0,0E0,0E0,0E0,0E0,0E0,0E0,0E0,0E0,0E0,0E0,0E0,0E0],"parents":[2147483647,0,0,1,1,2,2,3,3,4,4,5,5,6,6,7,7,8,8,9,9,10,10,11,11,12,12,13,13,14,14,15,15,16,16,17,17,18,18,19,19,20,20,21,21,22,22,23,23,24,24,25,25,26,26,27,27,28,28,29,29,30,30],"right_children":[2,4,6,8,10,12,14,16,18,20,22,24,26,28,30,32,34,36,38,40,42,44,46,48,50,52,54,56,58,60,62,-1,-1,-1,-1,-1,-1,-1,-1,-1,-1,-1,-1,-1,-1,-1,-1,-1,-1,-1,-1,-1,-1,-1,-1,-1,-1,-1,-1,-1,-1,-1,-1],"split_conditions":[6.547081E-1,1.008439E-2,1.4134922E0,-1.1027814E0,1.2906903E0,1.898663E-1,-1.0216709E0,-8.0287325E-1,-1.0140914E0,-1.0142719E0,1.9869788E0,-4.9591485E-1,2.988224E0,-9.815926E-1,-4.4873253E-1,3.0798298E-1,-2.0208392E-1,1.4803985E-4,2.1116383E0,1.068156E0,1.8585136E0,2.7290737E-2,-2.375428E-1,7.195013E-1,1.2431296E0,-2.2494511E-1,2.3244462E0,-7.502565E-1,-1.6946284E0,-1.742536E0,-7.096105E-1,1.5208777E-3,-1.4246026E-2,-3.7543916E-3,-1.9261241E-2,7.6499055E-3,8.158895E-4,-2.6058976E-4,-1.8159008E-2,1.0596946E-2,-2.7459938E-2,-6.5916916E-3,2.1065127E-3,5.8282875E-3,-2.563106E-2,-3.3986382E-2,1.3364784E-2,4.6195374E-3,1.291006E-2,-3.0667128E-5,9.009018E-3,6.688075E-3,-1.3064563E-3,-2.6227014E-2,3.9453376E-3,-1.1532695E-2,1.3436337E-2,-7.2582676E-3,-3.2089088E-2,-2.832781E-2,1.9140027E-2,2.0049343E-2,3.6103555E-3],"split_indices":[20,44,55,19,29,21,19,20,25,27,47,35,22,21,47,47,16,54,25,22,47,30,30,30,17,19,34,47,38,47,25,0,0,0,0,0,0,0,0,0,0,0,0,0,0,0,0,0,0,0,0,0,0,0,0,0,0,0,0,0,0,0,0],"split_type":[0,0,0,0,0,0,0,0,0,0,0,0,0,0,0,0,0,0,0,0,0,0,0,0,0,0,0,0,0,0,0,0,0,0,0,0,0,0,0,0,0,0,0,0,0,0,0,0,0,0,0,0,0,0,0,0,0,0,0,0,0,0,0],"sum_hessian":[1.1863235E4,9.326056E3,2.5371802E3,8.043488E3,1.2825674E3,2.164842E3,3.723382E2,9.8990936E2,7.0535786E3,1.1106353E3,1.7193211E2,1.301511E3,8.633309E2,8.61624E0,3.6372195E2,6.228007E2,3.6710864E2,1.3197714E3,5.733807E3,5.9365654E1,1.0512695E3,1.6467577E2,7.2563486E0,4.5813422E2,8.4337683E2,8.539222E2,9.408686E0,2.5844164E0,6.031823E0,9.218342E1,2.7153854E2,5.570521E2,6.574855E1,1.9729832E2,1.6981032E2,4.7778052E2,8.4199084E2,5.703523E3,3.0284267E1,5.357916E1,5.786494E0,9.6511896E2,8.6150604E1,1.5668077E2,7.9949985E0,5.9977303E0,1.2586185E0,3.2079068E2,1.3734352E2,7.001156E2,1.4326122E2,9.1692245E1,7.6223E2,8.240551E0,1.1681353E0,1.3288313E0,1.255585E0,1.0732422E0,4.958581E0,2.2483974E0,8.993502E1,5.0812096E1,2.2072644E2],"tree_param":{"num_deleted":"0","num_feature":"56","num_nodes":"63","size_leaf_vector":"1"}},{"base_weights":[7.5677168E-3,-1.9520588E-1,3.5842642E-2,-2.0461809E-2,-4.095309E-1,-2.8443523E-3,1.5884157E-1,9.533305E-2,-5.690011E-1,-1.557446E-1,-6.343791E-1,1.5785392E-1,-3.2379624E-2,9.872365E-1,1.3872468E-1,-3.857667E-1,2.5861683E-1,-7.383577E-1,3.1515327E-1,-2.9883856E-1,4.620972E-1,-1.9793978E-1,-8.6316437E-1,3.208924E-1,-3.7644606E-2,5.3425137E-2,-1.0018743E-1,1.3283273E0,-3.941327E-1,8.3928645E-2,4.6296442E-1,-1.2491073E-3,-2.1468133E-2,-1.189291E-2,6.7024473E-3,-2.2246616E-2,-8.121554E-3,2.0372782E-2,-9.3059335E-3,2.4138488E-2,-7.0671937E-3,2.5765497E-2,2.578774E-3,-1.0332492E-2,5.6094597E-3,-1.8478448E-2,2.0130789E-2,4.152346E-3,1.4312436E-2,7.090275E-3,-3.958382E-3,7.112562E-4,8.996456E-3,-4.3279E-5,-3.3544474E-3,2.8915948E-3,2.9993622E-2,1.3539208E-2,-2.6887836E-2,4.9213725E-3,3.1064902E-4,1.1804573E-2,-2.8661904E-3],"categories":[],"categories_nodes":[],"categories_segments":[],"categories_sizes":[],"default_left":[0,0,0,0,0,0,0,0,0,0,0,0,0,0,0,0,0,0,0,0,0,0,0,0,0,0,0,0,0,0,0,0,0,0,0,0,0,0,0,0,0,0,0,0,0,0,0,0,0,0,0,0,0,0,0,0,0,0,0,0,0,0,0],"id":21,"left_children":[1,3,5,7,9,11,13,15,17,19,21,23,25,27,29,31,33,35,37,39,41,43,45,47,49,51,53,55,57,59,61,-1,-1,-1,-1,-1,-1,-1,-1,-1,-1,-1,-1,-1,-1,-1,-1,-1,-1,-1,-1,-1,-1,-1,-1,-1,-1,-1,-1,-1,-1,-1,-1],"loss_changes":[6.78868E1,5.4260128E1,4.944718E1,5.0821995E1,3.7035088E1,3.752889E1,4.1297825E1,5.2010075E1,2.1114655E1,2.7282223E1,3.4249847E1,3.914138E1,3.8867203E1,2.8221214E1,4.3110092E1,3.7249023E1,3.244471E1,1.4129166E1,1.3167245E1,2.094211E1,1.5833858E1,1.8418276E1,2.6588257E1,2.9786476E1,3.5213768E1,2.0864967E1,2.4700733E1,9.392212E0,1.3543257E1,2.3048683E1,2.715689E1,0E0,0E0,0E0,0E0,0E0,0E0,0E0,0E0,0E0,0E0,0E0,0E0,0E0,0E0,0E0,0E0,0E0,0E0,0E0,0E0,0E0,0E0,0E0,0E0,0E0,0E0,0E0,0E0,0E0,0E0,0E0,0E0],"parents":[2147483647,0,0,1,1,2,2,3,3,4,4,5,5,6,6,7,7,8,8,9,9,10,10,11,11,12,12,13,13,14,14,15,15,16,16,17,17,18,18,19,19,20,20,21,21,22,22,23,23,24,24,25,25,26,26,27,27,28,28,29,29,30,30],"right_children":[2,4,6,8,10,12,14,16,18,20,22,24,26,28,30,32,34,36,38,40,42,44,46,48,50,52,54,56,58,60,62,-1,-1,-1,-1,-1,-1,-1,-1,-1,-1,-1,-1,-1,-1,-1,-1,-1,-1,-1,-1,-1,-1,-1,-1,-1,-1,-1,-1,-1,-1,-1,-1],"split_conditions":[-8.9885956E-1,-7.8555185E-1,6.547081E-1,2.741972E-1,-2.786406E-1,-1.0140914E0,-1.0348176E0,-2.1128645E0,9.41688E-1,2.942798E-1,-3.1577513E-1,6.136244E-1,-3.3603415E-1,4.848093E-1,1.4134922E0,-2.2767568E-1,-1.8572356E0,1.1374234E0,-1.4035292E-1,-1.344816E0,5.469445E-1,7.086502E-1,1.4830625E0,4.4964617E-1,-1.2899217E-2,1.9560047E0,-1.6349752E-1,-1.1896724E0,5.552129E-2,-6.573683E-2,1.0595434E0,-1.2491073E-3,-2.1468133E-2,-1.189291E-2,6.7024473E-3,-2.2246616E-2,-8.121554E-3,2.0372782E-2,-9.3059335E-3,2.4138488E-2,-7.0671937E-3,2.5765497E-2,2.578774E-3,-1.0332492E-2,5.6094597E-3,-1.8478448E-2,2.0130789E-2,4.152346E-3,1.4312436E-2,7.090275E-3,-3.958382E-3,7.112562E-4,8.996456E-3,-4.3279E-5,-3.3544474E-3,2.8915948E-3,2.9993622E-2,1.3539208E-2,-2.6887836E-2,4.9213725E-3,3.1064902E-4,1.1804573E-2,-2.8661904E-3],"split_indices":[19,20,20,26,16,25,44,17,33,36,55,54,8,36,55,47,47,28,11,35,36,52,20,47,44,36,47,36,17,26,30,0,0,0,0,0,0,0,0,0,0,0,0,0,0,0,0,0,0,0,0,0,0,0,0,0,0,0,0,0,0,0,0],"split_type":[0,0,0,0,0,0,0,0,0,0,0,0,0,0,0,0,0,0,0,0,0,0,0,0,0,0,0,0,0,0,0,0,0,0,0,0,0,0,0,0,0,0,0,0,0,0,0,0,0,0,0,0,0,0,0,0,0,0,0,0,0,0,0],"sum_hessian":[1.1838347E4,1.4480137E3,1.0390333E4,7.982653E2,6.497484E2,7.9049556E3,2.485378E3,6.5980817E2,1.3845715E2,3.0602756E2,3.4372086E2,1.2266328E3,6.6783228E3,5.77846E1,2.4275933E3,1.6684705E2,4.929611E2,1.1633793E2,2.2119226E1,2.488983E2,5.7129242E1,1.1885458E2,2.2486627E2,6.6849304E2,5.581398E2,2.9480452E3,3.7302776E3,4.6372574E1,1.1412024E1,2.0777205E3,3.498729E2,1.1422983E2,5.2617218E1,4.0005814E1,4.529553E2,5.3630516E1,6.270741E1,1.1472707E1,1.064652E1,7.958691E0,2.409396E2,1.5593387E1,4.153586E1,7.12878E1,4.7566776E1,2.1827892E2,6.5873575E0,5.2061786E2,1.478752E2,1.615786E2,3.9656116E2,2.8219722E3,1.2607297E2,1.5220837E3,2.2081938E3,6.0969973E0,4.0275578E1,5.500119E0,5.9119043E0,6.156539E2,1.4620665E3,2.8919403E2,6.0678886E1],"tree_param":{"num_deleted":"0","num_feature":"56","num_nodes":"63","size_leaf_vector":"1"}},{"base_weights":[4.4953204E-3,-3.1850304E-2,1.4204454E-1,3.0991782E-2,-1.0695399E-1,3.6225453E-1,6.1446175E-2,1.5771197E-1,-5.3800657E-2,-1.3580339E-1,2.606704E-1,-4.371542E-1,4.2064095E-1,8.8456244E-4,4.4621757E-1,7.0886485E-2,4.3429378E-1,-3.4328705E-1,1.5666584E-2,-4.6963984E-1,-1.1112941E-1,1.6951051E-1,7.3566556E-1,-3.306143E-2,-1.5221207E0,5.0128645E-1,-5.7639748E-2,4.0230427E-2,-4.4102916E-1,5.843326E-1,-4.3172067E-1,2.4735027E-3,-8.0457125E-3,9.586505E-3,-2.0413334E-2,-1.480215E-2,-3.8083228E-3,3.1290182E-3,-2.166614E-3,-2.310804E-2,-6.033773E-3,-2.34844E-3,1.5408309E-2,-4.479067E-3,5.6033367E-3,-1.1178231E-3,1.898439E-2,1.587205E-2,-1.931915E-2,4.092267E-3,-3.441038E-2,6.050409E-3,1.5711064E-2,5.72286E-3,-2.0223174E-2,6.5298006E-3,-2.6989673E-4,-1.1291901E-2,1.2246175E-2,1.7739655E-2,6.387521E-3,-2.1145923E-2,6.810282E-3],"categories":[],"categories_nodes":[],"categories_segments":[],"categories_sizes":[],"default_left":[0,0,0,0,0,0,0,0,0,0,0,0,0,0,0,0,0,0,0,0,0,0,0,0,0,0,0,0,0,0,0,0,0,0,0,0,0,0,0,0,0,0,0,0,0,0,0,0,0,0,0,0,0,0,0,0,0,0,0,0,0,0,0],"id":22,"left_children":[1,3,5,7,9,11,13,15,17,19,21,23,25,27,29,31,33,35,37,39,41,43,45,47,49,51,53,55,57,59,61,-1,-1,-1,-1,-1,-1,-1,-1,-1,-1,-1,-1,-1,-1,-1,-1,-1,-1,-1,-1,-1,-1,-1,-1,-1,-1,-1,-1,-1,-1,-1,-1],"loss_changes":[5.931648E1,4.429815E1,4.399193E1,5.4919933E1,4.538225E1,3.1187538E1,4.233121E1,4.917379E1,6.159158E1,3.2609673E1,1.3361792E1,1.9987143E1,2.3925606E1,2.7326138E1,3.0207901E1,3.903112E1,3.255062E1,3.5814766E1,4.3148956E1,3.1047016E1,2.0579845E1,1.1496668E1,8.479876E0,2.7235905E1,4.5933533E0,2.9723312E1,2.9886469E1,2.2198236E1,1.7069242E1,1.6868156E1,1.6860699E1,0E0,0E0,0E0,0E0,0E0,0E0,0E0,0E0,0E0,0E0,0E0,0E0,0E0,0E0,0E0,0E0,0E0,0E0,0E0,0E0,0E0,0E0,0E0,0E0,0E0,0E0,0E0,0E0,0E0,0E0,0E0,0E0],"parents":[2147483647,0,0,1,1,2,2,3,3,4,4,5,5,6,6,7,7,8,8,9,9,10,10,11,11,12,12,13,13,14,14,15,15,16,16,17,17,18,18,19,19,20,20,21,21,22,22,23,23,24,24,25,25,26,26,27,27,28,28,29,29,30,30],"right_children":[2,4,6,8,10,12,14,16,18,20,22,24,26,28,30,32,34,36,38,40,42,44,46,48,50,52,54,56,58,60,62,-1,-1,-1,-1,-1,-1,-1,-1,-1,-1,-1,-1,-1,-1,-1,-1,-1,-1,-1,-1,-1,-1,-1,-1,-1,-1,-1,-1,-1,-1,-1,-1],"split_conditions":[6.6952264E-1,7.7775614E-3,-1.020426E-1,1.4803985E-4,1.3435366E0,-1.5328668E0,1.6492884E0,2.965115E-1,-1.0798285E0,-1.2866545E0,3.6416E0,1.1055942E0,1.1821797E0,1.545951E0,2.8571405E0,8.4338754E-2,3.0387192E0,8.4542826E-2,-6.2329304E-1,-1.105298E0,2.9705765E0,-5.700608E-1,1.1374234E0,2.5708362E-1,-1.3276544E0,1.240209E0,8.372119E-1,-3.8024331E-3,1.2729256E0,-4.2773508E-2,1.3832628E0,2.4735027E-3,-8.0457125E-3,9.586505E-3,-2.0413334E-2,-1.480215E-2,-3.8083228E-3,3.1290182E-3,-2.166614E-3,-2.310804E-2,-6.033773E-3,-2.34844E-3,1.5408309E-2,-4.479067E-3,5.6033367E-3,-1.1178231E-3,1.898439E-2,1.587205E-2,-1.931915E-2,4.092267E-3,-3.441038E-2,6.050409E-3,1.5711064E-2,5.72286E-3,-2.0223174E-2,6.5298006E-3,-2.6989673E-4,-1.1291901E-2,1.2246175E-2,1.7739655E-2,6.387521E-3,-2.1145923E-2,6.810282E-3],"split_indices":[20,18,18,54,24,45,17,47,17,20,14,54,5,45,19,47,47,5,45,54,27,45,28,5,13,20,31,19,47,13,45,0,0,0,0,0,0,0,0,0,0,0,0,0,0,0,0,0,0,0,0,0,0,0,0,0,0,0,0,0,0,0,0],"split_type":[0,0,0,0,0,0,0,0,0,0,0,0,0,0,0,0,0,0,0,0,0,0,0,0,0,0,0,0,0,0,0,0,0,0,0,0,0,0,0,0,0,0,0,0,0,0,0,0,0,0,0,0,0,0,0,0,0,0,0,0,0,0,0],"sum_hessian":[1.1863022E4,9.384149E3,2.478873E3,5.1094595E3,4.2746895E3,6.632511E2,1.815622E3,2.0479657E3,3.0614937E3,3.9642268E3,3.1046283E2,4.470307E1,6.1854803E2,1.5695784E3,2.460436E2,1.5596206E3,4.8834503E2,5.91719E2,2.4697747E3,2.7159125E2,3.6926355E3,2.6161182E2,4.8851017E1,3.3322624E1,1.1380446E1,5.292587E2,8.928928E1,1.4420905E3,1.2748781E2,2.1288716E2,3.3156445E1,1.4037521E3,1.5586862E2,4.7433478E2,1.4010245E1,1.6349063E2,4.282284E2,1.1564734E3,1.3133013E3,5.2273533E1,2.193177E2,3.6673245E3,2.5311127E1,5.7200058E1,2.0441176E2,1.0536145E1,3.8314873E1,1.774639E1,1.5576234E1,1.1696059E0,1.021084E1,3.1268573E2,2.16573E2,6.614221E1,2.3147076E1,2.2708046E2,1.21501E3,1.14517845E2,1.2969961E1,9.827899E1,1.1460816E2,1.8113688E1,1.5042756E1],"tree_param":{"num_deleted":"0","num_feature":"56","num_nodes":"63","size_leaf_vector":"1"}},{"base_weights":[-5.1397276E-3,-3.6398403E-2,1.8174906E-1,-6.461429E-1,-2.8407393E-2,2.921812E-1,-1.9765788E-1,-9.072426E-2,-1.0462698E0,-5.0922506E-2,1.7299646E-1,-5.713995E-1,3.2916236E-1,-6.627702E-1,5.1580067E-3,3.0441248E-1,-1.0811403E0,-4.4115567E-1,-1.5821398E0,3.4909613E-2,-1.390662E-1,-2.5944236E-1,2.611521E-1,1.2162459E0,-9.9274844E-1,8.160604E-1,2.55579E-1,6.9540757E-1,-8.484493E-1,8.004588E-1,-1.0939761E-1,-5.658519E-3,2.2963166E-2,-2.945932E-2,5.812271E-4,1.13035925E-2,-1.7665988E-2,-3.3498347E-2,2.0451216E-2,3.6761032E-3,-2.4873458E-4,-1.3439193E-3,-5.01326E-3,-9.807453E-3,5.790315E-3,1.0686627E-2,2.3730225E-3,3.1727627E-2,7.159142E-3,-6.7568305E-3,-3.1259593E-2,1.8053602E-2,-1.9524522E-2,1.8819405E-3,1.0519344E-2,-2.9799376E-2,2.8956344E-2,1.5070839E-2,-2.152065E-2,2.064891E-2,-1.9875737E-2,-7.445074E-3,4.8252842E-3],"categories":[],"categories_nodes":[],"categories_segments":[],"categories_sizes":[],"default_left":[0,0,0,0,0,0,0,0,0,0,0,0,0,0,0,0,0,0,0,0,0,0,0,0,0,0,0,0,0,0,0,0,0,0,0,0,0,0,0,0,0,0,0,0,0,0,0,0,0,0,0,0,0,0,0,0,0,0,0,0,0,0,0],"id":23,"left_children":[1,3,5,7,9,11,13,15,17,19,21,23,25,27,29,31,33,35,37,39,41,43,45,47,49,51,53,55,57,59,61,-1,-1,-1,-1,-1,-1,-1,-1,-1,-1,-1,-1,-1,-1,-1,-1,-1,-1,-1,-1,-1,-1,-1,-1,-1,-1,-1,-1,-1,-1,-1,-1],"loss_changes":[6.9755646E1,4.9824432E1,7.174597E1,2.9303162E1,4.580032E1,4.2524582E1,3.644691E1,2.2435276E1,2.4203796E1,6.87272E1,3.878445E1,4.248629E1,4.535887E1,3.0175621E1,2.4687557E1,2.0721342E1,7.1459484E0,1.7164148E1,1.1461464E1,3.2451405E1,3.5928123E1,2.2007456E1,3.279683E1,2.8957386E0,1.6239918E1,2.6733078E1,4.825615E1,2.6261356E1,3.8603043E1,1.5226709E1,2.1925558E1,0E0,0E0,0E0,0E0,0E0,0E0,0E0,0E0,0E0,0E0,0E0,0E0,0E0,0E0,0E0,0E0,0E0,0E0,0E0,0E0,0E0,0E0,0E0,0E0,0E0,0E0,0E0,0E0,0E0,0E0,0E0,0E0],"parents":[2147483647,0,0,1,1,2,2,3,3,4,4,5,5,6,6,7,7,8,8,9,9,10,10,11,11,12,12,13,13,14,14,15,15,16,16,17,17,18,18,19,19,20,20,21,21,22,22,23,23,24,24,25,25,26,26,27,27,28,28,29,29,30,30],"right_children":[2,4,6,8,10,12,14,16,18,20,22,24,26,28,30,32,34,36,38,40,42,44,46,48,50,52,54,56,58,60,62,-1,-1,-1,-1,-1,-1,-1,-1,-1,-1,-1,-1,-1,-1,-1,-1,-1,-1,-1,-1,-1,-1,-1,-1,-1,-1,-1,-1,-1,-1,-1,-1],"split_conditions":[9.6951187E-1,-2.0637352E0,1.1952173E0,-3.7658215E-2,1.2970084E0,-1.469474E0,1.3719809E0,-8.254686E-1,-1.945552E0,-1.9023097E-1,-4.1524455E-1,-8.1273794E-1,-8.81155E-1,-2.885143E-1,-3.355038E-1,8.80915E-1,1.0705835E-1,-3.1577513E-1,1.6911724E0,-1.072403E-1,6.136244E-1,8.13219E-1,1.4803985E-4,5.85547E-1,1.325111E0,8.232418E-1,6.287737E-1,-8.2049656E-1,-2.8523037E-1,6.464618E-1,5.6952465E-1,-5.658519E-3,2.2963166E-2,-2.945932E-2,5.812271E-4,1.13035925E-2,-1.7665988E-2,-3.3498347E-2,2.0451216E-2,3.6761032E-3,-2.4873458E-4,-1.3439193E-3,-5.01326E-3,-9.807453E-3,5.790315E-3,1.0686627E-2,2.3730225E-3,3.1727627E-2,7.159142E-3,-6.7568305E-3,-3.1259593E-2,1.8053602E-2,-1.9524522E-2,1.8819405E-3,1.0519344E-2,-2.9799376E-2,2.8956344E-2,1.5070839E-2,-2.152065E-2,2.064891E-2,-1.9875737E-2,-7.445074E-3,4.8252842E-3],"split_indices":[20,47,45,5,45,45,45,45,19,45,20,47,25,47,26,55,35,55,30,44,54,5,54,15,20,26,45,47,5,40,47,0,0,0,0,0,0,0,0,0,0,0,0,0,0,0,0,0,0,0,0,0,0,0,0,0,0,0,0,0,0,0,0],"split_type":[0,0,0,0,0,0,0,0,0,0,0,0,0,0,0,0,0,0,0,0,0,0,0,0,0,0,0,0,0,0,0,0,0,0,0,0,0,0,0,0,0,0,0,0,0,0,0,0,0,0,0,0,0,0,0,0,0,0,0,0,0,0,0],"sum_hessian":[1.193845E4,1.0228462E4,1.7099884E3,1.3128206E2,1.009718E4,1.324657E3,3.853315E2,5.5486973E1,7.579508E1,9.082578E3,1.01460205E3,5.3803024E1,1.2708539E3,1.16316986E2,2.690145E2,4.015812E1,1.5328856E1,3.645391E1,3.9341167E1,4.6019336E3,4.480644E3,1.714801E2,8.4312195E2,9.902673E0,4.390035E1,1.655206E2,1.1053334E3,1.3659235E1,1.0265775E2,3.311646E1,2.3589806E2,2.4068508E1,1.608961E1,1.1088584E1,4.2402725E0,1.1042502E1,2.541141E1,3.8332745E1,1.0084206E0,1.1095912E3,3.4923425E3,2.726399E3,1.7542449E3,1.20778786E2,5.070131E1,2.880913E2,5.5503064E2,6.326203E0,3.5764697E0,2.1174284E1,2.2726067E1,1.5836339E2,7.157214E0,6.9287854E2,4.124548E2,3.2472692E0,1.0411966E1,1.248226E1,9.017549E1,2.9700869E1,3.4155903E0,1.3479451E2,1.0110354E2],"tree_param":{"num_deleted":"0","num_feature":"56","num_nodes":"63","size_leaf_vector":"1"}},{"base_weights":[-1.3618101E-3,-3.707945E-2,1.3042599E-1,3.8986564E-2,-1.0515479E-1,8.201412E-2,4.2112577E-1,-4.8938656E-1,5.5617098E-2,-4.811447E-1,-7.53807E-2,5.625742E-1,5.2031677E-2,-2.9087821E-2,4.5094308E-1,1.4980981E-1,-8.796119E-1,1.6412278E-1,-1.0408827E-2,-1.0883871E-1,-6.6749954E-1,-1.23708464E-1,1.3082552E-1,7.5101143E-1,-4.1119844E-1,8.871077E-2,-2.9322365E-1,-1.0602778E0,4.860696E-1,-3.087996E-2,6.656256E-3,-1.4057431E-3,-2.393445E-2,-3.083744E-3,5.1959297E-3,-2.5309564E-3,3.2241466E-3,-1.7980944E-2,2.2358228E-3,-1.7779049E-2,-6.5875184E-3,-3.312784E-3,2.6814565E-3,9.43494E-3,-4.557877E-5,2.7218498E-2,1.174442E-2,-1.7906314E-2,2.7443502E-2,3.0545269E-3,-3.419097E-3,-2.3237057E-3,-2.4317006E-2,2.0210901E-3,-3.388894E-2,1.6132269E-2,6.3905315E-3],"categories":[],"categories_nodes":[],"categories_segments":[],"categories_sizes":[],"default_left":[0,0,0,0,0,0,0,0,0,0,0,0,0,0,0,0,0,0,0,0,0,0,0,0,0,0,0,0,0,0,0,0,0,0,0,0,0,0,0,0,0,0,0,0,0,0,0,0,0,0,0,0,0,0,0,0,0],"id":24,"left_children":[1,3,5,7,9,11,13,15,17,19,21,23,25,-1,27,29,31,33,35,37,39,41,43,45,47,49,51,53,55,-1,-1,-1,-1,-1,-1,-1,-1,-1,-1,-1,-1,-1,-1,-1,-1,-1,-1,-1,-1,-1,-1,-1,-1,-1,-1,-1,-1],"loss_changes":[5.5850563E1,4.8342796E1,3.557122E1,3.87739E1,5.5114944E1,3.1237942E1,2.084098E1,3.3718937E1,3.063453E1,